<?xml version="1.0"?>
<opencv_storage>
<opencv_ml_ann_mlp>
  <format>3</format>
  <layer_sizes>
    120 40 65</layer_sizes>
  <activation_function>SIGMOID_SYM</activation_function>
  <f_param1>1.</f_param1>
  <f_param2>1.</f_param2>
  <min_val>-9.4999999999999996e-01</min_val>
  <max_val>9.4999999999999996e-01</max_val>
  <min_val1>-9.7999999999999998e-01</min_val1>
  <max_val1>9.7999999999999998e-01</max_val1>
  <training_params>
    <train_method>BACKPROP</train_method>
    <dw_scale>1.0000000000000001e-01</dw_scale>
    <moment_scale>1.0000000000000001e-01</moment_scale>
    <term_criteria>
      <iterations>30000</iterations></term_criteria></training_params>
  <input_scale>
    2.4582512818973971e+01 -8.5764681616508937e-02
    4.0550058628654968e+00 -5.0563809630737766e-01
    3.1168990227454114e+00 -2.0617950614579605e+00
    4.2924188355250141e+00 -3.7117228492139307e+00
    4.1977907559215542e+00 -3.2470296792701476e+00
    4.4723504592387595e+00 -3.7115610865638335e+00
    4.2845933789535762e+00 -3.6316451258720588e+00
    2.9546698425877262e+00 -1.5103897105585808e+00
    5.7703867284230936e+00 -3.6055192923914536e-01
    3.7228056149126360e+01 -5.5189539191238028e-02
    3.9799717791456168e+00 -2.8627353399940598e+00
    4.6904564265874118e+00 -3.8700399040125393e+00
    4.3503822048703871e+00 -3.1856784934347084e+00
    4.4283811324767282e+00 -3.3447086714524841e+00
    4.8609062635745097e+00 -3.8584645847164709e+00
    4.7245979208736024e+00 -3.6664662014438290e+00
    4.3578028718812769e+00 -3.1207881187596795e+00
    4.6156379426305127e+00 -3.4488499405759230e+00
    4.5237634348627900e+00 -3.6679111172534280e+00
    3.5822726066071233e+00 -2.2735218738600174e+00
    3.2578949528190965e-01 -4.8870189833826690e-02
    4.5290534661644788e-02 -2.8422637170171189e-01
    1.3883119238254438e-02 -8.3116342433571966e-01
    1.1386771087049628e-02 -1.3917794540620418e+00
    1.0141942253306811e-02 -1.3632028650292609e+00
    1.0861474759592555e-02 -1.5577659812760976e+00
    1.1708537251563090e-02 -1.3802715251457534e+00
    1.6736198107310800e-02 -6.4076438204688080e-01
    6.0419750294540692e-02 -1.7930339639957610e-01
    4.1004512344196353e-01 -3.3909942106241354e-02
    2.0546259364940803e-01 -6.2175464590752620e-02
    3.0505452014706627e-02 -3.5831755295051804e-01
    1.1772426203356359e-02 -1.1433833379329843e+00
    1.1605610703929679e-02 -1.8174590138747611e+00
    1.1604965641075030e-02 -1.4357517249871521e+00
    1.2111135776358414e-02 -1.7695804993251920e+00
    1.1438744908542898e-02 -1.8719297964212676e+00
    1.3348769170956646e-02 -8.6414700905362363e-01
    4.4089132431061301e-02 -2.2761199789024436e-01
    3.2552929983996470e-01 -4.1680546213115899e-02
    2.2509283007309416e-01 -6.3821978048832800e-02
    2.9146318729026094e-02 -3.6260467698761284e-01
    1.1079853309847952e-02 -1.0986211556722016e+00
    1.1611486218397657e-02 -1.5765062378720054e+00
    1.0173412118425070e-02 -1.0386337418267002e+00
    1.0408756851085483e-02 -1.1812801467201917e+00
    1.1012573655670408e-02 -1.5880279218174944e+00
    1.2501657550331653e-02 -8.5593287886182312e-01
    4.2345784605080546e-02 -2.4190903404474678e-01
    3.4925554200461101e-01 -4.6169515813247283e-02
    2.5503430067571353e-01 -5.3662334879705030e-02
    3.0214585429590164e-02 -3.5947486175972682e-01
    1.1175376512131328e-02 -1.1272292490959031e+00
    1.1529203267457938e-02 -1.6748113994122660e+00
    1.0219573608656761e-02 -1.2192240412498649e+00
    1.0793052114242334e-02 -1.3558922331486301e+00
    1.0763267982578652e-02 -1.4978231230727983e+00
    1.2574984034303236e-02 -8.2017254244038673e-01
    4.3083964254907653e-02 -2.3538578859625148e-01
    3.8386207092603408e-01 -4.6653130770446138e-02
    2.7389244531859830e-01 -5.0545272975447093e-02
    3.2773929722366486e-02 -3.2008545562081153e-01
    1.1299068329606934e-02 -1.0412185968219090e+00
    1.0842411401999485e-02 -1.7147932309048646e+00
    1.1082731519126933e-02 -1.7378615118014173e+00
    1.1853243212057465e-02 -1.9941284168668252e+00
    1.1645582210602346e-02 -1.7792778450036357e+00
    1.3161186470170953e-02 -7.6838001271349632e-01
    4.9116086647001310e-02 -2.1052717352096834e-01
    4.1405798666156263e-01 -3.9642099232383432e-02
    2.6553771978042567e-01 -5.3944094740609613e-02
    3.3138636834137980e-02 -2.9403102284978189e-01
    1.1325242878601895e-02 -9.9013408238014711e-01
    1.1019705673358500e-02 -1.6446855975281194e+00
    1.1246267283123753e-02 -1.5407048940195920e+00
    1.1621740950467340e-02 -1.7910522404589009e+00
    1.1194192310769976e-02 -1.7608401009476715e+00
    1.2827071509465186e-02 -7.9905022935314585e-01
    4.9175535148826527e-02 -2.0727490730185860e-01
    3.6592497433531412e-01 -3.5033822825556643e-02
    2.1276770529377811e-01 -5.9697026601809339e-02
    3.1104762458446178e-02 -3.1639226312820867e-01
    1.1098291683882230e-02 -1.0352189287964113e+00
    1.0996502732819331e-02 -1.5040489556129253e+00
    1.0708571939022669e-02 -1.0623871348155578e+00
    1.0745558121834704e-02 -1.2584229139527807e+00
    1.0850319516132426e-02 -1.6114349344146575e+00
    1.2245278810270935e-02 -8.3903231178436966e-01
    4.5007732140599263e-02 -2.3080954987410027e-01
    3.9954098847090519e-01 -3.4845621090673982e-02
    1.8991029811046001e-01 -6.7417847076606086e-02
    2.8589617691253098e-02 -3.4448428684003046e-01
    1.1261027641444080e-02 -1.1678900906403205e+00
    1.1722744507033091e-02 -1.7104737445812088e+00
    1.0946139347297469e-02 -1.0935548733051268e+00
    1.0412349293730583e-02 -1.2198300994891624e+00
    1.0729580646819288e-02 -1.5890803934538671e+00
    1.2105404187377374e-02 -8.7671221665613142e-01
    4.3394213883619637e-02 -2.5072038269793778e-01
    3.5391771545154938e-01 -3.5827791419315774e-02
    2.0590742393857472e-01 -6.8692841238801941e-02
    3.0376074788430771e-02 -3.3844976656227688e-01
    1.1794533030500740e-02 -1.1429042699530652e+00
    1.1390417463290099e-02 -1.7727105173436946e+00
    1.2222513787135255e-02 -1.4901041098620187e+00
    1.2746293431039132e-02 -1.7027167325057906e+00
    1.0517254321667391e-02 -1.5803163496312846e+00
    1.3390852157699145e-02 -8.6850409146870533e-01
    4.8301417705236507e-02 -2.4631820918131234e-01
    3.5047269069081011e-01 -3.1249922346360755e-02
    2.7690493835161750e-01 -4.8069952988891287e-02
    4.6355579448822827e-02 -2.5021863879225487e-01
    1.4895479726043779e-02 -7.2896418813781472e-01
    1.1577372350207728e-02 -1.1990220134839598e+00
    1.0045172726514125e-02 -1.1737388207299000e+00
    1.0450347962368220e-02 -1.1536479632614356e+00
    1.1953790243580674e-02 -1.0966750680597863e+00
    1.7674491139563649e-02 -6.0354182374231924e-01
    7.3999425368422828e-02 -1.8938709106809151e-01
    4.2407386996123086e-01 -2.2047122326464511e-02</input_scale>
  <output_scale>
    5.2631578947368418e-01 4.9999999999999994e-01 5.2631578947368418e-01
    4.9999999999999994e-01 5.2631578947368418e-01 4.9999999999999994e-01
    5.2631578947368418e-01 4.9999999999999994e-01 5.2631578947368418e-01
    4.9999999999999994e-01 5.2631578947368418e-01 4.9999999999999994e-01
    5.2631578947368418e-01 4.9999999999999994e-01 5.2631578947368418e-01
    4.9999999999999994e-01 5.2631578947368418e-01 4.9999999999999994e-01
    5.2631578947368418e-01 4.9999999999999994e-01 5.2631578947368418e-01
    4.9999999999999994e-01 5.2631578947368418e-01 4.9999999999999994e-01
    5.2631578947368418e-01 4.9999999999999994e-01 5.2631578947368418e-01
    4.9999999999999994e-01 5.2631578947368418e-01 4.9999999999999994e-01
    5.2631578947368418e-01 4.9999999999999994e-01 5.2631578947368418e-01
    4.9999999999999994e-01 5.2631578947368418e-01 4.9999999999999994e-01
    5.2631578947368418e-01 4.9999999999999994e-01 5.2631578947368418e-01
    4.9999999999999994e-01 5.2631578947368418e-01 4.9999999999999994e-01
    5.2631578947368418e-01 4.9999999999999994e-01 5.2631578947368418e-01
    4.9999999999999994e-01 5.2631578947368418e-01 4.9999999999999994e-01
    5.2631578947368418e-01 4.9999999999999994e-01 5.2631578947368418e-01
    4.9999999999999994e-01 5.2631578947368418e-01 4.9999999999999994e-01
    5.2631578947368418e-01 4.9999999999999994e-01 5.2631578947368418e-01
    4.9999999999999994e-01 5.2631578947368418e-01 4.9999999999999994e-01
    5.2631578947368418e-01 4.9999999999999994e-01 5.2631578947368418e-01
    4.9999999999999994e-01 5.2631578947368418e-01 4.9999999999999994e-01
    5.2631578947368418e-01 4.9999999999999994e-01 5.2631578947368418e-01
    4.9999999999999994e-01 5.2631578947368418e-01 4.9999999999999994e-01
    5.2631578947368418e-01 4.9999999999999994e-01 5.2631578947368418e-01
    4.9999999999999994e-01 5.2631578947368418e-01 4.9999999999999994e-01
    5.2631578947368418e-01 4.9999999999999994e-01 5.2631578947368418e-01
    4.9999999999999994e-01 5.2631578947368418e-01 4.9999999999999994e-01
    5.2631578947368418e-01 4.9999999999999994e-01 5.2631578947368418e-01
    4.9999999999999994e-01 5.2631578947368418e-01 4.9999999999999994e-01
    5.2631578947368418e-01 4.9999999999999994e-01 5.2631578947368418e-01
    4.9999999999999994e-01 5.2631578947368418e-01 4.9999999999999994e-01
    5.2631578947368418e-01 4.9999999999999994e-01 5.2631578947368418e-01
    4.9999999999999994e-01 5.2631578947368418e-01 4.9999999999999994e-01
    5.2631578947368418e-01 4.9999999999999994e-01 5.2631578947368418e-01
    4.9999999999999994e-01 5.2631578947368418e-01 4.9999999999999994e-01
    5.2631578947368418e-01 4.9999999999999994e-01 5.2631578947368418e-01
    4.9999999999999994e-01 5.2631578947368418e-01 4.9999999999999994e-01
    5.2631578947368418e-01 4.9999999999999994e-01 5.2631578947368418e-01
    4.9999999999999994e-01 5.2631578947368418e-01 4.9999999999999994e-01
    5.2631578947368418e-01 4.9999999999999994e-01 5.2631578947368418e-01
    4.9999999999999994e-01 5.2631578947368418e-01 4.9999999999999994e-01
    5.2631578947368418e-01 4.9999999999999994e-01 5.2631578947368418e-01
    4.9999999999999994e-01</output_scale>
  <inv_output_scale>
    1.8999999999999999e+00 -9.4999999999999996e-01
    1.8999999999999999e+00 -9.4999999999999996e-01
    1.8999999999999999e+00 -9.4999999999999996e-01
    1.8999999999999999e+00 -9.4999999999999996e-01
    1.8999999999999999e+00 -9.4999999999999996e-01
    1.8999999999999999e+00 -9.4999999999999996e-01
    1.8999999999999999e+00 -9.4999999999999996e-01
    1.8999999999999999e+00 -9.4999999999999996e-01
    1.8999999999999999e+00 -9.4999999999999996e-01
    1.8999999999999999e+00 -9.4999999999999996e-01
    1.8999999999999999e+00 -9.4999999999999996e-01
    1.8999999999999999e+00 -9.4999999999999996e-01
    1.8999999999999999e+00 -9.4999999999999996e-01
    1.8999999999999999e+00 -9.4999999999999996e-01
    1.8999999999999999e+00 -9.4999999999999996e-01
    1.8999999999999999e+00 -9.4999999999999996e-01
    1.8999999999999999e+00 -9.4999999999999996e-01
    1.8999999999999999e+00 -9.4999999999999996e-01
    1.8999999999999999e+00 -9.4999999999999996e-01
    1.8999999999999999e+00 -9.4999999999999996e-01
    1.8999999999999999e+00 -9.4999999999999996e-01
    1.8999999999999999e+00 -9.4999999999999996e-01
    1.8999999999999999e+00 -9.4999999999999996e-01
    1.8999999999999999e+00 -9.4999999999999996e-01
    1.8999999999999999e+00 -9.4999999999999996e-01
    1.8999999999999999e+00 -9.4999999999999996e-01
    1.8999999999999999e+00 -9.4999999999999996e-01
    1.8999999999999999e+00 -9.4999999999999996e-01
    1.8999999999999999e+00 -9.4999999999999996e-01
    1.8999999999999999e+00 -9.4999999999999996e-01
    1.8999999999999999e+00 -9.4999999999999996e-01
    1.8999999999999999e+00 -9.4999999999999996e-01
    1.8999999999999999e+00 -9.4999999999999996e-01
    1.8999999999999999e+00 -9.4999999999999996e-01
    1.8999999999999999e+00 -9.4999999999999996e-01
    1.8999999999999999e+00 -9.4999999999999996e-01
    1.8999999999999999e+00 -9.4999999999999996e-01
    1.8999999999999999e+00 -9.4999999999999996e-01
    1.8999999999999999e+00 -9.4999999999999996e-01
    1.8999999999999999e+00 -9.4999999999999996e-01
    1.8999999999999999e+00 -9.4999999999999996e-01
    1.8999999999999999e+00 -9.4999999999999996e-01
    1.8999999999999999e+00 -9.4999999999999996e-01
    1.8999999999999999e+00 -9.4999999999999996e-01
    1.8999999999999999e+00 -9.4999999999999996e-01
    1.8999999999999999e+00 -9.4999999999999996e-01
    1.8999999999999999e+00 -9.4999999999999996e-01
    1.8999999999999999e+00 -9.4999999999999996e-01
    1.8999999999999999e+00 -9.4999999999999996e-01
    1.8999999999999999e+00 -9.4999999999999996e-01
    1.8999999999999999e+00 -9.4999999999999996e-01
    1.8999999999999999e+00 -9.4999999999999996e-01
    1.8999999999999999e+00 -9.4999999999999996e-01
    1.8999999999999999e+00 -9.4999999999999996e-01
    1.8999999999999999e+00 -9.4999999999999996e-01
    1.8999999999999999e+00 -9.4999999999999996e-01
    1.8999999999999999e+00 -9.4999999999999996e-01
    1.8999999999999999e+00 -9.4999999999999996e-01
    1.8999999999999999e+00 -9.4999999999999996e-01
    1.8999999999999999e+00 -9.4999999999999996e-01
    1.8999999999999999e+00 -9.4999999999999996e-01
    1.8999999999999999e+00 -9.4999999999999996e-01
    1.8999999999999999e+00 -9.4999999999999996e-01
    1.8999999999999999e+00 -9.4999999999999996e-01
    1.8999999999999999e+00 -9.4999999999999996e-01</inv_output_scale>
  <weights>
    <_>
      -5.4841782909316195e-01 -2.2267710165166738e-01
      -2.4312423353431547e+00 -8.7638956973891002e-01
      1.3547202509858804e+00 -3.0564975921606391e-03
      -3.6472047318196568e+00 1.7657425597960696e+00
      -1.0014854050401589e+00 3.7951482963285104e+00
      3.0646711972981446e+00 -2.5638006949529817e-02
      -4.8527919428977127e+00 -7.6230766720257002e+00
      -1.4738414062849983e+00 -3.6624708659670673e+00
      -4.1007271306462503e+00 9.0226374314177065e+00
      -4.3509849938140582e-01 -1.2718328364016893e+00
      1.1471538206983460e+00 3.4020514432494244e+00
      7.4476043266524961e-01 2.7746431109759104e+00
      1.3237825802619643e+00 -2.4946923497192084e+00
      -2.7689833414645482e+00 -9.0622266153306236e-02
      -1.3362838583152512e+00 1.8812330034278277e+00
      4.1795100423312104e-01 -8.7806549831310221e-01
      3.1427736267277990e+00 -6.7645195116387447e+00
      8.9957997308898907e-01 2.4561011690429915e+00
      1.9631469288309917e+00 -9.4425772036223865e-01
      -2.5984951825812597e+00 4.2478673937959348e+00
      6.6978047965104259e-01 -1.6156695273698178e+00
      -5.7632716786045002e+00 -6.5385793258550151e-01
      2.5381984406353544e+00 7.2909694756434329e-01
      -1.7143910357205667e+00 -2.2781030000471452e+00
      2.2126330502298963e-01 -7.3662723769338645e-01
      1.6361001289702810e+00 -8.8000816426263784e-02
      1.4265209215986199e+00 -5.9729399321563226e-01
      6.1516195102429014e+00 2.4379231114748987e+00
      2.1171021294698078e+00 -3.9053236928972146e-01
      1.7331254598793447e-01 1.7705631095884260e+00
      1.0880864140994537e+00 4.0610162336462574e-01
      3.7335144359506516e+00 -1.0895514933153667e+00
      -2.3836594646725322e+00 -3.0043038179705324e+00
      -5.8583939004314898e+00 -3.2955609087700628e+00
      2.1413777760441994e+00 3.2095089364318519e-01
      -5.8660374970251683e-01 1.3318828462572381e+00
      3.0717061504482932e+00 -2.3554608874327014e+00
      -2.6732626953764577e-01 -2.0143522726801462e+00
      6.1054968806695198e-01 -2.5709889114576110e+00
      -1.9340715881329891e+00 -5.8042782993128679e+00
      1.4612268700759395e-01 -4.6972045226206589e+00
      1.1331570454721809e+00 1.2424630097400435e+00
      -1.0362961723178463e+00 -3.8762309840902280e+00
      -1.3062599411803237e+00 -1.8032772302566757e+00
      1.8708010538004889e+00 -1.3454957493218909e+00
      2.2549261249858765e+00 -6.0107714677748376e+00
      4.3703348098000538e-01 -3.1432194745369353e+00
      -6.2753642480001581e-01 1.0310675883092729e-02
      4.9218522991778428e+00 1.6866771658332220e+00
      -7.0244851289331611e-01 2.8032742673671018e-01
      -7.5096964409510640e+00 2.1266973380696168e+00
      -4.0454530067054312e-01 1.4048265178068982e+00
      -3.7125912468470172e+00 -2.2015822219621883e+00
      -2.0858015616439665e+00 -2.7991134469681853e+00
      2.7705511388678734e+00 -1.9667118945865993e+00
      2.2086079278234177e-01 3.0146777188214076e+00
      -5.6970008833014720e+00 -8.9096496247097523e-01
      -3.9604710152228209e+00 -4.6577390555695519e+00
      1.5183010552617247e+00 1.1893617370305500e-01
      2.5244765741026325e+00 -1.5667305693294655e+00
      2.8989511991799843e-01 7.3407137100936719e+00
      5.8723145618287935e+00 -5.7637541147786973e+00
      -5.1282309845706542e-01 -2.4790684773832137e+00
      -2.8123577134959592e+00 7.9992881965204550e+00
      -2.8414870479931720e+00 8.3623554195741505e+00
      -4.0307473383228363e+00 5.7234485486382844e+00
      -3.4572288211901805e+00 -7.5783231925870820e-01
      8.7764560878103950e+00 -4.4348124477235240e+00
      1.5537009004365596e+00 2.3110959802025430e+00
      -6.3918342924743288e-01 -6.5546950012850296e+00
      -6.4349958717059943e+00 4.8380707618691154e+00
      1.7886656010894344e+00 2.5215123060132463e+00
      -4.6182142961411285e+00 -3.4078529962206519e+00
      -1.8443713301012266e+00 -5.2513879547534401e+00
      -4.3418818977321134e+00 3.3897860704555698e+00
      2.5138883439146977e+00 5.9810965059455174e+00
      2.3436181199421485e-01 -5.2750013511158302e+00
      -2.6578225948559560e+00 -1.0626445002402230e+01
      2.1851742623217478e+00 -3.7634996049795197e+00
      5.1014717727204770e+00 -9.8570645828205017e-01
      3.9754554205068504e-01 7.2273967876858043e+00
      -1.1067646740773213e+01 -3.7887480587269384e+00
      -3.4329434510968380e+00 -6.4642322448147171e-01
      -1.0645443189088313e+00 3.7435680373557507e+00
      -6.7482574648797238e+00 1.1050848561978091e+00
      -7.7407791693533090e-01 -8.8771203463590520e-01
      -4.9347872639539263e+00 2.4492898005519357e+00
      1.1118325404755540e+00 2.6445703076746607e+00
      7.7085259420502981e+00 1.4996305486340167e+00
      -6.7856331096264288e-01 3.3821996464033441e+00
      -7.3925751522896532e-01 1.4795491927212955e+01
      3.0050631423722534e+00 2.0983161917390472e-01
      1.1007111972397681e+00 -2.1917690568000592e+00
      -1.7865857797928728e-01 -3.6965282195550846e+00
      1.7061175568830713e+00 6.0899756583235130e+00
      1.4043303490765304e+01 6.5438647109275534e+00
      3.6162087435739410e+00 7.2759519786747007e-01
      -5.5815975864112275e+00 2.5779338966948068e-01
      -1.5529196166926216e+00 -1.9203508527193101e+00
      9.5935346602746330e-01 -2.2688491990459236e+00
      5.2094211851799466e-01 5.8075749959032006e+00
      -2.6878061694685491e+00 1.6447417215421838e+00
      -1.4548392300163062e+00 3.3454658985745334e+00
      -3.7992359639694859e+00 4.5871739392660293e+00
      -2.7559511666861574e+00 -1.8674773342567283e+00
      5.6206807874354614e-01 2.6384604119827437e+00
      1.1147868703902799e+00 3.6950666715872343e-01
      -1.6888664659782013e-01 5.6895790861963809e+00
      6.6255232414398098e+00 -1.2271626423355722e-01
      3.2243202460149412e-01 5.8877173682627673e+00
      7.3042084246162897e+00 3.4713297293942720e+00
      -6.6283079690767766e+00 7.2403337147809099e-01
      -3.2341705548140691e+00 -1.3044532218423646e+00
      -2.2399599129174672e+00 -7.1330168493224653e+00
      2.2051339784208555e+00 8.8208683298606037e+00
      2.7799561820053325e+00 -6.9909180518073111e-01
      7.5241005443634661e+00 -1.5102727314746003e+00
      -4.6563454354668954e+00 2.1144685066369808e+00
      -5.8726177793484338e+00 7.4594487417486954e-01
      1.0511056886231382e+01 -5.7985544544283485e+00
      2.8423410743548122e-01 -1.9065495823434844e+00
      5.2038423446663931e+00 -1.9144949568811598e+00
      5.0899996907123288e+00 -2.4703651831497617e+00
      -4.9965699168403344e+00 3.8350076919781495e+00
      -2.2324272567393382e+00 3.0395549250504899e+00
      4.0852067378427792e+00 5.7394036500042036e+00
      3.0885315410672516e+00 -1.8482343805591661e+00
      -6.0290621976393766e-01 5.1919865950725219e-01
      1.8151813183912442e+00 -7.1868214580700602e+00
      -2.1605214140689147e-01 -8.6855067730420032e-01
      -1.9236467800336130e+00 9.1642878657575277e+00
      -8.5628365874058900e+00 -2.5349496717559967e+00
      -3.3157174645138756e+00 -6.2481623515014348e+00
      -4.6975908290087212e+00 -2.1904632802825650e+00
      -2.2984293164686318e+00 4.0567687518734924e-01
      -1.2421496382823296e+00 8.4528745606143421e+00
      -4.2374885949348351e-01 -6.1822481791880723e-01
      -5.1009295384633191e+00 1.8490556733532273e+00
      2.9715781489899524e+00 -2.9222244952950125e+00
      -2.9251577025060884e+00 2.8326858188520049e-01
      1.6876217971405125e-01 -4.9677275606192128e-01
      -6.1949223362074033e+00 -2.6437367612673666e+00
      -3.3488167350439806e+00 -4.2082227710376099e+00
      -2.7991112565654879e+00 7.2076460169020091e+00
      4.2489511092186909e+00 -5.1478401259109763e+00
      -7.7688840659870984e-01 1.4621562093231888e+00
      7.7425846579118369e+00 -4.9043446074342099e-02
      3.2533055236396935e+00 1.0062376133051286e-01
      -6.3109312776456028e-01 4.2546164201408319e+00
      -2.3876403638256893e-01 2.1510261995332627e+00
      1.7616705196287090e+00 7.0039028871696926e-02
      -1.7672693369907131e+00 8.5933797657034106e+00
      1.1484320948318860e+00 2.5315723545842981e+00
      -9.8333370802948288e+00 -4.6592702452988011e+00
      3.9906339355373834e+00 -1.8941641748114733e+00
      3.9561802661938916e+00 -2.6641154013355197e+00
      1.3766292907662443e+00 -3.7368545631863376e-01
      -7.8184735632901265e+00 -2.5798249981872221e+00
      -4.6597349522646203e+00 2.6901088823055654e+00
      3.6206939598540391e+00 -3.8601919541831546e+00
      7.4354692636898467e-01 1.5309849649895821e+00
      -5.3249910137095160e+00 1.2464133938345905e+00
      -2.3314954179774432e+00 -3.9001430830686541e+00
      -3.1744887642710129e+00 6.9841070972648422e-01
      -2.7071593068232094e+00 3.0217731832155463e+00
      -1.8530626774156993e+00 2.9541020298539999e+00
      6.6493290701724750e-01 4.4296961136278229e-01
      1.9717860162325611e+00 -2.0351687944625789e+00
      1.7887553862391220e-01 4.0982771297894161e+00
      9.6582281811694604e-01 2.2415323885254743e+00
      3.1971148033578867e-01 -5.1355572299143670e+00
      1.8801375748505977e+00 8.9099976789913526e+00
      1.6913273905146828e+00 2.1019999925297932e+00
      -2.1656343096346129e+00 -6.4124273609059017e+00
      5.6392670874527635e+00 -2.4994312776914569e+00
      9.0211232318903589e-01 1.6439356397223515e+00
      5.6590750634404428e+00 -4.3687850592578847e-01
      -3.5824740852050114e+00 -5.0251704799058041e+00
      1.4666525335080447e+00 -2.3786210788862654e+00
      3.9585158014717745e+00 5.1657995752679831e-01
      -6.5824575750877412e-01 -1.3958525347764847e-01
      -1.9865994020201905e+00 -2.5328278976860616e+00
      2.9959870684593946e+00 3.5738280510040545e+00
      -3.5606821642324631e+00 3.0456017405210695e-01
      1.4774340309069960e+00 2.6107440619902329e+00
      1.1812741036949159e+00 3.6832086391635275e+00
      8.8357962878744079e-01 -9.3812925888850518e-01
      -1.3437285585045078e+00 -3.1999100295057734e+00
      3.3576364136703601e-01 -3.9714316015147038e+00
      4.9956399220651954e-01 -5.4848017629029231e+00
      9.7908801196200901e-01 7.4581015555759067e-01
      -1.6024874687962463e+00 2.8669320458218572e-01
      -3.0004041987785524e-01 -3.0705946594604656e+00
      -6.2000460768911392e-01 1.9581024850814812e+00
      3.0434771519077093e+00 5.6857768367388166e+00
      -1.4393365008444239e-01 -9.8480769777855370e-01
      1.2056449184354359e+00 -3.1267172012435385e+00
      2.5307481918624749e-02 3.3683910895226492e+00
      -4.6664852965636507e+00 -8.9166109459823328e-01
      -1.1019143756773404e+00 4.6213768122534180e+00
      -9.7748571135611195e-02 -1.9357450946625832e+00
      5.9778429615579021e-01 -4.4210324174337110e+00
      -3.3826326178698712e-01 -9.4600032768636233e-01
      1.6126879134636283e+00 -1.0678753922638868e+00
      1.0423703805239901e+00 -2.0824833980188095e-02
      -1.4468012291047957e-01 -2.3358601054454065e+00
      -6.0243311173899272e-01 -3.0006868597708075e-01
      2.6467558627451884e+00 -3.8703602018794964e-01
      7.9206770001609261e-01 -2.2566181352130918e+00
      -2.9530497152300245e-01 -2.6103260379360699e-01
      -3.7565804304440702e+00 1.3911571233441409e+00
      7.9177377043190389e-01 1.0936387957623941e+00
      6.1884573782501118e+00 -1.7792516323032854e+00
      -1.8974434056951983e+00 2.5143438493292098e+00
      1.4541669372060391e+00 -7.3349056091165765e-01
      -6.2424832391009533e-01 -2.5326768440859432e-02
      1.6807403439468291e+00 1.5224771856568693e+00
      -7.0692375942934282e-01 -1.1019591392956269e+00
      2.3614926606358422e+00 6.8070178682556631e-02
      4.0686324679816392e+00 2.7840592132704445e-01
      1.4378487029901560e-01 1.1500535498754303e+00
      5.4273221334907671e+00 5.6372109551164860e+00
      5.3936713651367301e+00 2.8775496312503757e+00
      -5.1595599810070059e-01 -2.0414823762447520e+00
      3.9056743307941560e-01 1.0722008056393914e-02
      6.2470054018207688e-01 6.8943100083751618e-01
      -4.7440784842260237e+00 2.1861663133456624e+00
      -4.1741173497890754e-01 -3.7356284418839292e+00
      4.9854261308051445e-01 -6.2860416196146032e+00
      -2.0500602381122116e-01 -2.5182958576559533e-01
      2.7595021824787871e+00 7.0892633540165439e-01
      9.3418161309222725e-01 3.1878419377917053e+00
      -1.3573726543237021e+00 1.6510028985173206e+00
      3.2939906030522939e+00 2.7954716277934413e+00
      9.1556614510435763e-01 -3.4576017522345415e-01
      -1.3224463340423886e+00 1.4200468337157210e-01
      -1.3261189921754024e+00 1.0506387092765987e+00
      3.7890763022459950e+00 1.7948141830032335e-01
      -4.7831291601149550e-01 -6.1921526499362045e-01
      4.2345004944252507e+00 3.4916640783467594e+00
      -1.7712680353553487e-02 2.7838604643902052e+00
      -1.7507332886378237e+00 -2.4207285400737844e+00
      5.7658007330696108e+00 1.7449625337037682e+00
      -6.1880269338736937e-01 -4.8652000185560773e+00
      -2.2947561387659676e+00 -3.1961496146092067e-01
      -1.7324388797792881e-01 5.3302141722732790e+00
      -6.4039423025932940e-01 -2.4787783993823327e+00
      -2.2324633753489338e+00 4.4868345032837875e-02
      -2.8715500730161065e+00 -2.4308221203098035e+00
      2.3969493899663910e-01 -1.9732867274698060e+00
      4.1330037451766569e-02 3.5134441875874503e+00
      3.1172836521225955e+00 -4.8564423144340180e-01
      1.9303732245375442e+00 -4.0291489667002417e-01
      5.6323805138699301e-01 4.0841670820772178e+00
      -9.6431887523460613e-01 1.3218706460835759e+00
      -3.9288316753199584e+00 8.1298545957338275e-01
      4.1971096501635436e+00 -4.7763482270457462e+00
      2.3579959883810924e+00 2.1088107347826885e+00
      -1.1228298656397395e+00 -5.7942465247777006e+00
      3.9387958222189307e-01 1.7965905667176834e+00
      1.7753659562188392e-01 -3.1722471371507401e+00
      -4.9785498758174027e+00 5.4260586216495499e+00
      3.1635152846587280e+00 5.8398179328806865e-01
      -1.1401445992967227e+00 -3.1864793871642355e-01
      -1.4171499764115960e+00 6.8078759175448287e+00
      -1.7878028359516218e+00 1.0925749697813476e+00
      -4.9808865734472336e+00 -2.9672865337681857e+00
      -2.7148686513528446e+00 -4.3839674245981248e+00
      -1.9719411003693028e+00 3.1210370350717063e+00
      8.3947426359130911e-02 -2.0303831992692437e-01
      7.5195623522524988e+00 6.3796723563256830e+00
      -1.7166296953965385e+00 3.4128922596033386e+00
      3.2392169938174979e+00 -3.9967074797727991e+00
      -4.8378625564518360e+00 4.2069214422587926e+00
      1.4669383846814170e+00 -3.0632824928730713e+00
      5.1088965614254656e-01 -2.2299244154130045e+00
      -4.2106621007677454e+00 1.2387142736693846e+00
      4.4931994215628386e+00 5.2924478395992947e-01
      7.7451116291283006e-01 4.2358577147082785e+00
      -5.9020656080527711e-01 -1.9538512385260332e+00
      -2.4481293697756570e-01 -3.1942694001251820e-01
      -2.6625806817463089e+00 2.7633402815657746e+00
      -1.6191564105866390e+00 -8.8708138627166908e-02
      -1.1120947575514637e+00 4.5228372361336122e+00
      -3.0256188777302007e+00 3.2709437506204155e+00
      3.4556357168792806e-01 4.9254048905395482e+00
      1.8046041943832003e+00 -1.0131217731098943e+00
      6.5138239565129619e-01 1.3015833214111718e+00
      -1.1120731111777113e+00 4.9018009061713608e+00
      -2.0478689011000920e-01 -6.0924903556156726e+00
      -7.4099904408666928e-01 4.2174858500064989e+00
      -4.0634408074089361e+00 1.8414244412077450e+00
      -8.7498640417604145e-01 6.4760191987217863e-01
      -8.9910400909090402e+00 -3.8014181301398928e-02
      -2.5892525675959868e+00 5.4395949364232898e-01
      3.5872637361305220e+00 -4.6236613857029790e-01
      1.7857054235594749e+00 8.8303127348350898e+00
      -3.5684417178356043e-01 -1.0886652563353585e+00
      2.5526329072277720e+00 -4.7447569130628392e-01
      4.3995723693812581e+00 4.1962730843642992e+00
      -3.6450770130439714e-01 4.3186580367516125e-01
      -2.7495392663096192e+00 -2.1206418309826582e+00
      3.1031649210947831e+00 2.1772442468691295e+00
      8.9666804479276008e-01 2.1286358065894881e+00
      -3.5140894139809703e-01 4.0947523722853401e+00
      9.3273514795077295e-01 -1.6784835819790684e+00
      4.0481774044759549e+00 -6.6047690415851512e-01
      4.8243241243799870e+00 -9.5843231405860985e-01
      6.2600701847286846e+00 1.1410126567357819e+00
      6.4621970504813919e-01 -4.7107044308492521e+00
      5.9123642562778023e-01 -3.5141751738269491e+00
      1.2582974587051405e+00 -1.4312704406749628e+00
      -5.8718932021220329e+00 8.0281641441859852e-01
      -1.6140606508467030e+00 -3.3519427749444919e+00
      -5.9684737667966736e+00 6.4958719532037934e+00
      -2.0591545239435052e-01 -1.4280678594941376e+00
      6.6992848178590436e-01 4.5985012796297653e+00
      1.8242828221452529e+00 2.6430312768482978e+00
      -3.4432167725733986e+00 1.2937188054978566e-01
      -3.3831447644147752e+00 1.5399883294642591e+00
      3.9309076812569843e-01 4.3221046825692389e+00
      3.2197001358272277e+00 1.3384156393115878e+00
      9.6749140772584785e-01 -7.8147619066305485e-01
      -7.4643457323792972e-01 8.2221703652700064e+00
      7.3225421874580443e-01 2.4306485469666694e+00
      5.2716127133218196e+00 -9.2288482653579640e-01
      4.4366452878933355e-01 -5.2599416862357606e-01
      -1.4385508063518981e+00 -4.3592877272368966e+00
      -2.1737481192999506e+00 -1.4502412457416678e+00
      -2.0497442910216271e-01 -2.9639843202398914e+00
      -6.9302875755908222e-01 4.2637710096239996e+00
      -2.3803130365203580e+00 -6.0172508920820498e+00
      3.1831780975007882e+00 -3.2567498920264502e+00
      -1.8394861302256829e+00 1.7639428919442046e+00
      -3.5232787952106190e+00 4.9199991426755689e+00
      -9.5238935245815892e-01 3.4196925108628826e+00
      3.5002430223833323e+00 -1.3890026579560766e+00
      5.6425928478856413e+00 2.6146043588562153e+00
      -6.0227543377033710e-01 -4.2043666964793029e+00
      -3.3969010351107198e+00 1.3256007815185173e+00
      -2.0953153233547051e-01 3.6532535124813124e+00
      -9.2947497880076990e-01 1.2888940898777901e+00
      1.7645378089687802e-01 2.6923574104619563e+00
      3.3071948231376194e+00 5.4756793382460023e+00
      3.9503424335000008e+00 2.4275844244371538e+00
      6.2870226799861886e+00 -2.5566117769073262e+00
      4.1721512040519722e+00 3.3038749527759409e-01
      -5.4030459341416603e-01 -3.6070346072093620e+00
      -2.2125634349935206e+00 -2.1874529145917392e+00
      -2.6748018903485032e-01 -2.2500544643156428e+00
      -7.0921187046203311e+00 4.7344068294803616e+00
      -2.7683336005209931e+00 -2.4358642184162349e+00
      3.0231043778893668e-01 2.5548952230696442e+00
      8.7685487274206562e+00 -5.5046190372631998e-01
      6.2430924120671891e+00 -4.6743779176002670e-01
      3.3072622748656673e+00 6.7646549565515297e+00
      -2.9744166289958018e+00 -5.5177213514669088e+00
      2.7865858603389349e-01 -2.0126591194331427e+00
      4.5606406131241277e+00 -2.6921395721901638e+00
      -3.7167043188160714e-01 -7.4306106571888975e-01
      4.0986086265271193e-01 2.3073218722870825e-01
      1.3806918741312946e+00 5.0351255806764090e+00
      -5.1795877874651648e+00 2.2082923725899173e+00
      -2.0355475107466559e+00 1.0948559362801846e+00
      -2.5262254544644098e+00 -2.2444271014520911e+00
      4.5199194953805693e+00 1.8259395580950017e+00
      2.4572321554877510e+00 -9.0210875299191751e-01
      -3.6697633875578872e+00 -2.9952158173809684e-01
      -2.8059810538138414e+00 -7.2280972325711002e-01
      1.8647214194552086e-01 -2.3988362369767300e+00
      -8.0438586931126750e+00 -4.2204490460613769e-01
      4.3383320991442913e+00 2.1104625204464411e+00
      -2.6254526286733348e+00 9.0159415497289586e-01
      3.6986879760715796e+00 -4.0212760372153751e+00
      3.0073923503003090e+00 3.6453399610509543e+00
      2.2443872598534766e+00 7.8975685425606077e+00
      -1.0177252288902336e+00 -8.8874455907634908e-01
      4.0973336006491756e+00 -4.3451143255575406e+00
      3.7766697832860419e+00 3.5762468604071938e+00
      -2.8795805457037549e+00 -2.5834051966639784e+00
      -1.5163891709639996e-01 -4.7291173673351594e-01
      -3.8677094513758541e+00 -2.7280971183068936e+00
      1.0014679683764367e+00 -6.8951502653320462e-01
      -1.4427903132619542e+00 9.1232383770760050e-01
      3.9842734281871894e-01 -3.3837763616759027e+00
      2.0778614745248711e-01 -2.1866614686643104e-01
      2.4753271495040345e+00 -9.6893142525034129e-02
      -6.8849809635291626e-01 -1.8971745532505242e+00
      -6.0601400871894839e-01 -1.9391998945168365e+00
      7.0852576557589808e-01 5.7699583773026042e+00
      -8.4259706818181024e-01 3.6826044184651061e+00
      -2.2804924415920276e+00 -4.4128964413195790e+00
      2.2818541838394218e-01 -6.9779534583024860e-01
      1.0910437494667662e+00 -1.5456788827166228e+00
      1.5533696615536652e+00 1.5325967040611068e+00
      -4.0155907422530994e+00 1.4074699097888022e+00
      -3.5181814266307834e+00 2.6854758648298321e-01
      3.0172107176067073e+00 -2.4999140983431967e+00
      8.3868153806502289e-03 -4.1052328983045543e+00
      -2.7335781891417316e-01 -3.9442176684990002e+00
      -7.7821010050183581e-01 -2.2830253085381917e+00
      -8.6198457318809609e+00 2.5864787028603393e+00
      -3.7608933326812801e+00 -5.1471666912127283e+00
      -4.6813304551335033e+00 -1.4305949721200704e+00
      9.5031942655368462e-01 5.0267790114702615e+00
      4.0336636734926046e+00 -5.4416178554871895e+00
      -4.2693028675278413e+00 -1.2473454102126786e+00
      4.2593590353634259e-01 2.0631150849602389e-02
      2.7830905210891572e+00 -5.5432939286859337e+00
      2.2256644963392174e-02 7.5474012923031220e-01
      5.2950012400387463e+00 -1.7131371655574421e+00
      -2.5647199724833425e+00 7.2114687586975301e-01
      2.6602344446755484e+00 -5.1631430563886909e+00
      1.5292876322829110e+00 -5.9753828937262279e+00
      -9.0152994184088375e-01 5.8887469648044704e+00
      -2.2255865729611379e+00 1.5562851633754149e+00
      5.8035102477709399e-01 7.0342848398103790e+00
      1.5590860282979591e+00 -2.9754461622988413e+00
      -2.6620465871184740e+00 -1.3449704516472487e+00
      -5.9446530087190030e+00 3.3467680032191325e+00
      -3.8670066506645062e-01 -7.9678514262092992e-01
      -8.7538376510817295e-01 -1.0174865116881024e-01
      -2.2779722128761630e+00 3.5706562292859423e+00
      1.6666755171371468e+00 -2.3443742169282888e+00
      -3.1221192352091816e+00 7.9140902102222976e-01
      -1.6341058605688894e+00 -8.6762253521258415e-01
      1.2490525040411480e+00 2.8341314090784375e+00
      2.7723309400738294e-01 5.3043419912931289e-01
      7.9527170986130002e-01 -2.7892385882546611e-01
      1.6248615168653130e-01 -1.9447488475876549e+00
      2.5095700753049770e+00 -1.2323381013841437e+00
      9.6567440955008110e-01 1.0937242747123067e+01
      2.5323401228846003e+00 1.2937922034851335e+00
      2.9405300760079556e-01 -4.8383869267714719e+00
      -2.7577627442072430e+00 3.3483520722726952e+00
      9.2879473875244734e-01 -2.4279381316433679e+00
      -1.8481856530179048e+00 2.4142912342767366e+00
      2.5381867593751578e-01 2.9837077339921749e+00
      -2.2939730177398331e-02 -5.8517385389671850e-01
      1.1239272026373655e+00 -4.0446115977342451e-01
      -1.2130014604168977e-01 2.2433141281677460e+00
      -2.5000549220504436e+00 7.9041242834741199e-01
      -4.7709076783883324e+00 -1.1746529560081637e-01
      -3.9297451166492205e+00 -1.5446741936202733e+00
      1.7447139764501457e-01 8.6495781502185687e-01
      -2.9584637785028276e+00 -1.5489095190205426e+00
      -7.2861717934934820e+00 -5.5109532890505342e-01
      -2.5804720943405668e+00 7.1897114013602987e+00
      -2.9356655768656337e+00 -3.8466851510416333e+00
      1.1232503628411929e-01 1.8918174916693387e+00
      4.1682987956511157e+00 1.2972913664850316e+00
      -1.0588201068140208e+00 1.6149343422663705e+01
      2.6248164838644525e+00 3.3340139047490984e+00
      1.0176605835499346e+01 5.7402195349226677e+00
      -2.8005146186671537e+00 3.7527434618658848e+00
      -3.8101377317337257e+00 -2.5373936384107205e+00
      1.1476084189926468e+00 1.3180467628829433e+00
      2.4856914740359186e+00 3.5280066498132432e+00
      2.0853231602957201e+00 -2.4781005348331409e+00
      1.7344342308257921e+00 -7.0967548851734841e-01
      -1.7809164330815605e-01 -2.0235838538508268e+00
      2.7308916911637220e+00 -9.3029887677493039e-01
      -1.3743161989288331e+00 4.7677210333980269e-01
      5.9748680605363589e+00 4.0267747148796831e+00
      3.1617023388112662e+00 5.6289169666036889e+00
      -4.9410054073997467e-01 2.1550322282000667e+00
      -4.4060469945810254e+00 -1.6093308344113841e+00
      -1.2199793760968549e+00 1.6778222384934349e+00
      -1.3703453537844335e+00 -1.4307309030839774e+00
      6.4968077782855738e-01 -6.9991775506283183e-01
      -1.2413293191803187e+00 -3.8307608305211196e+00
      -5.8409843279097649e+00 8.8308268041534781e+00
      3.1733859120954269e+00 6.3660125907990261e-01
      -2.1898273071897356e+00 2.6669866499680563e+00
      -4.8003819522844765e-01 9.3738073234782990e-02
      1.9571900854912732e+00 3.5862209767804201e+00
      3.3153761037544203e+00 -1.2231012167594599e+00
      -1.2031783286604779e-01 -6.3159143072089945e+00
      3.9287834813626272e+00 6.1577872183866065e+00
      -1.8210077459323917e+00 8.9801548244118046e-01
      2.9677691113935895e-01 -5.2117196696176977e+00
      -2.9525230814549064e-01 -9.5649857394483746e+00
      -1.9517517037673224e+00 -1.6244781074905719e+00
      1.2865547956862198e+01 -2.9484258294588961e+00
      1.0027948283609433e+01 -2.0871600486627653e+00
      7.1895112616714476e+00 9.3288033552952978e+00
      7.2450773883752584e+00 1.3177726875473761e+00
      5.7030081282309353e-01 -7.1233639846545618e+00
      -3.0842088731207449e+00 -5.9421803579972376e+00
      7.1143610224320353e-01 2.3064529023066688e-01
      -6.7030913282957805e-01 1.8716423576772798e+00
      -2.9245348463371648e+00 -1.3625261212635214e+01
      -5.0739347824447973e+00 -1.7719053577104593e+00
      -2.1720691855786320e+00 -1.7204003493207349e+01
      -2.0213469865038847e-01 8.2567710315052878e+00
      -4.9075302160061334e+00 -4.1736865155144018e+00
      2.7400612274730474e+00 1.5185221069544252e+00
      -8.6019733076540028e+00 -3.5270522068435599e+00
      -1.9930572500573049e+00 4.3158271016707839e-01
      2.8142409515275197e+00 1.7806671398937284e+00
      -1.8776221353293893e-01 1.6612278284436373e+00
      5.4623960772570559e+00 -6.9630934141526817e+00
      4.8207930953398120e-02 -2.7020315056582347e+00
      4.3447014630281222e+00 -2.0162903267075571e+00
      -4.6074768114690301e-01 -3.4848836382262371e+00
      2.0636814357805764e+00 -1.9711241855334618e+00
      4.0853867005255387e+00 -2.4623101996690358e-01
      3.4369668375122697e-01 -7.5265929039108510e+00
      1.9208675353928525e-01 5.3046617727921692e+00
      6.8107633127944001e-01 -4.7286719462139493e+00
      1.8774602544250336e+00 -1.1821796405346281e-01
      -4.6046841418262234e+00 -1.8262698349332029e+00
      -2.2234323733457884e+00 -5.1437185984062728e+00
      -5.7964350451268851e+00 -9.5950656901004105e+00
      1.6805184778836193e+00 -3.8681368592057219e-01
      -2.2049846836094740e+00 -3.3458108976564889e+00
      -6.2055448733785701e+00 2.8355900247919230e+00
      -7.9401712630411792e-01 5.2361989702304390e+00
      -1.2532041205402800e+00 2.9139903908780305e+00
      -5.0551491238915887e+00 4.6096993676112126e+00
      -9.3955379241148204e-02 6.0983831289103172e+00
      -2.9242576632259514e+00 -1.9565108795070087e+00
      -1.4883012206458854e+00 9.7039600561029449e-01
      -4.9688260205607184e+00 3.2390828741802191e+00
      -7.8926523347232957e-01 2.0682882100860569e+00
      3.3468572907931580e+00 -4.7188382434781406e+00
      -6.0195774709738377e+00 -1.9627774296800358e+00
      -1.5580825926264694e+00 5.0328750934080704e+00
      2.7002776647642999e+00 5.1532532559781004e+00
      -1.6869839196323158e-01 -1.2434284417602663e+00
      -1.8802504704259175e+00 -2.7185411360436418e+00
      3.1582711693525056e-01 -5.2182629224453665e+00
      5.0514906619207816e+00 -8.6669450804997189e-02
      6.5979339732545315e+00 6.0138259204357922e+00
      3.1216007206233667e+00 -1.2454206754667367e+00
      -2.2900019079753577e+00 3.9823375956236329e-01
      -5.0887560358240300e+00 7.2514599874922825e-01
      -2.6019776825535321e+00 -2.3973194489920355e+00
      -3.1596314821784199e+00 -4.3714860647106651e-01
      -7.9486639321543839e-01 -8.9624840075233436e+00
      -3.9427128965699887e-01 2.7404661974694315e+00
      -4.9864453017812052e+00 1.9867775150948686e+00
      -2.4733554262062379e-01 1.9211954198151855e+00
      -2.4972244254159741e+00 8.2341010861635922e-02
      2.2392795698535468e+00 3.5128520254354627e+00
      1.4645589633691587e+00 2.7203234659478942e-01
      -6.9630398471670674e+00 -7.4432154027619313e-01
      4.2536257952609304e+00 -2.0401070256075238e-01
      6.1607459765040140e-01 -2.9616302629788276e+00
      2.5567289696595025e-01 1.9445203156126458e+00
      -2.0884071335609296e+00 3.8008684180172305e+00
      2.4048953797575670e+00 -2.7804817128574784e+00
      1.1621321259739257e+00 2.5669181607630569e+00
      6.1149352591484947e+00 5.8513332325584386e+00
      6.1395272452103400e-01 2.7526290463967484e-01
      -5.2587733296927723e+00 -1.9553983353592985e+00
      -5.0640127761571936e+00 -2.4258761486297153e+00
      -3.6749114602500064e+00 1.2631803527488925e+00
      -1.7442171211840627e+00 -3.0107198419756798e+00
      4.0079090815169556e+00 -2.1441073586889039e+00
      -2.6922504278391474e-01 8.1513900962143071e-01
      -2.0178818075452116e+00 -1.6593549881800205e+00
      3.6335035817040851e-01 -1.4303555888071634e-01
      -4.8527708136671990e+00 -2.7504017898426403e+00
      -1.5059044042816194e+00 3.3001402220188987e+00
      3.2774103062405291e+00 1.3734795822969623e+00
      -1.1834353400426216e+00 4.0066619832856913e+00
      -2.8188747653909652e-01 1.2353107490254225e+00
      3.4135064699913267e+00 -3.8547916749877107e+00
      5.9243194359570648e+00 2.9551233595519757e+00
      -1.3793790307603151e+00 -1.6247601601867534e-01
      -1.0561524640193725e+00 1.4788842795796283e-02
      -2.7179389782895730e-01 1.9478549151931993e-01
      9.1243730380595711e-01 2.3708982339699660e+00
      -3.0493499495473881e+00 2.2850481047575602e+00
      -2.7209361032199588e+00 1.9539624853068105e+00
      -8.3477280820299915e-01 -4.1390482483344854e-01
      5.0695737931188600e-01 1.8171793256980764e+00
      -1.9565669737926139e+00 -1.3015314513430882e+00
      -1.2881601575545352e+00 -3.8489114447057943e-01
      -1.6373835845298795e-01 -1.9284015438170514e+00
      -4.8297035254638017e+00 -3.2031538185346822e+00
      -1.7629044155715476e+00 -2.6797392533834918e-01
      -3.0727412312951166e+00 -1.4999711924992702e+00
      2.8388803897977644e+00 -1.4153078884977262e+00
      2.6098046963436450e+00 3.4153714235161936e+00
      5.6024616737896338e-01 -2.5441855443737404e+00
      -2.8330498507414430e+00 2.4614259920056427e+00
      3.2775055720323629e+00 -3.1160550324656575e+00
      7.7495673315036973e-01 -2.6289390236869306e+00
      -6.6768478107933760e+00 5.9200413564021115e-01
      -2.9331448885169751e+00 -3.7161691167107008e-01
      1.5588864805418796e+00 8.3648909704912822e-01
      -2.8638316776638284e+00 4.6184924080130747e+00
      -2.8518453184297438e-01 2.0639585321513261e+00
      -1.1521675629263850e+00 3.8377878752184471e+00
      -4.2450823766793544e+00 1.8284320752038194e-01
      -3.3472423134311744e+00 -1.4537549205936902e+00
      1.1601227999890802e+00 -8.8055621236421688e-01
      -1.5949676416838612e-01 -7.7457333643759778e+00
      -4.2736554195689874e-01 1.3001927524394037e+00
      -5.7966753326060410e+00 5.5929127266543226e+00
      -3.8765392379055426e+00 2.1396130598084748e+00
      -6.2182854775848453e+00 3.9499838246418828e+00
      -1.9901759486367960e+00 -4.1455847613033274e+00
      3.5644275658880580e+00 -2.0783506388057162e+00
      -1.1516372494685159e+00 -3.7681662906074394e+00
      -2.8058828410154346e+00 -6.4530288420986057e+00
      1.9210933981413354e+00 -7.9470115651997075e-01
      -4.6793421422761605e-01 3.1069036027782904e+00
      2.4047411857921368e+00 6.7687263459220715e+00
      4.8369862715084633e+00 1.9442509120647038e+00
      1.4519399076394000e+00 1.5424897107423199e+00
      -5.3127753820360546e+00 -7.0609874376158750e+00
      8.0355401486128955e+00 3.0914644499627215e+00
      -1.1510744375079818e+00 7.3414334519609037e-01
      2.4697312612628912e+00 -2.7812696632397693e-01
      -2.5779449528962406e+00 -2.7449147264210167e+00
      -4.1338320084194830e-01 -5.3495074857197285e+00
      -4.3764156855063030e+00 5.3088651160888531e+00
      -2.7548177918268285e-01 6.5254221738575935e-01
      -2.1301597056951120e+00 -1.4168894556950866e+00
      -6.6223424983305899e+00 5.9291446408027200e-02
      -1.6932647553907747e+00 1.9314268345114167e+00
      1.9555473753851957e+00 -4.8309443928178846e+00
      1.1450236218016732e+00 2.4668881734130204e+00
      -1.2886686677157346e+00 2.7836135775454371e+00
      1.5057112315411390e+00 9.1209457080753120e-01
      -1.9605822740037404e+00 -1.9106353216774647e+00
      1.7279789022316647e+00 3.2992710049610109e-02
      -4.1573256228070514e+00 -3.5101656347513250e+00
      -2.8779238647851929e-01 7.0271394528779991e+00
      -1.8400500541927569e+00 1.6535458021779095e-01
      1.9750281405460455e+00 1.2121504870675041e-01
      -1.5261955361168018e+00 1.2060098008132951e+00
      -1.5617974728794712e+00 -8.6259009889668781e-01
      -2.7818451794680708e+00 9.3430580469689817e-01
      -1.3054202209412833e+00 -5.6016574188085428e+00
      -1.6449935794209772e-01 -4.1878521916958951e+00
      8.7763309398369027e-01 -6.8163277161349001e-01
      1.7191138936693520e-02 -1.3635258520304907e+00
      5.4090846165465063e+00 -2.3880436612452720e+00
      -4.8556456965348476e+00 -5.9513403069918063e+00
      -1.9280234731957322e+00 1.5098601715352009e+00
      7.2533778896150369e-01 4.1094204430357353e+00
      -1.1411475040943220e+00 5.9870980048767226e+00
      -4.1552511951265307e+00 1.3498744923670598e+00
      4.8269396685120078e+00 4.8321559774055984e+00
      -9.9749239172696647e-01 -3.1255199546517711e+00
      1.2794692412065869e-01 6.4875074559140122e-01
      -2.3205371391430170e+00 -9.1979860482706496e-03
      4.5447683652242397e+00 4.7163157917010083e-02
      3.9825113940951899e+00 5.1295870726198860e+00
      1.8014217339157350e+00 6.0838504221988021e+00
      -1.9025093336033867e+00 6.8773502460929548e+00
      -4.8836693114676928e+00 1.3302245509778838e+00
      -2.7416446309618556e+00 4.0197982649273838e+00
      2.5120181523194427e+00 4.3920989986209226e-02
      -2.3819884064191506e+00 5.1345687451789894e+00
      6.1422487102325825e+00 5.5422020495792901e-01
      5.8251570920920683e-02 -8.3200994684901826e+00
      1.7768132621424140e+00 -1.5929185082223413e-01
      -5.3648044832881343e+00 -3.5519144829517013e+00
      -3.3717500453189611e+00 7.8580265356406711e+00
      -4.7281100621597522e-01 2.0303358915659881e+00
      -4.2557558767873305e-01 5.6495647026034375e+00
      -1.9051522212160563e-01 2.5506067690317904e+00
      3.9277111575628600e+00 -3.6509678413140656e+00
      -4.2270787568045698e-02 -1.9543647576558125e+00
      6.4040052619154608e-01 -2.5975028547014606e-01
      4.5858985975236466e-01 1.2738985895986357e+00
      3.6065307072239738e+00 -1.4592659441838407e+00
      3.0795395856294476e+00 4.9193616391454714e-01
      -3.1638530060482539e+00 -3.7823541902930624e+00
      -2.1125723255786827e-01 2.1935308131640001e+00
      1.2407313359824943e+00 -1.9714312103643539e+00
      2.7638610045557175e+00 -3.1300922875692055e-01
      -8.2366696041732190e-02 -2.6906089393046306e+00
      9.3232795716045491e-01 7.8905846466622958e+00
      -3.6610920628981353e-01 -6.5445441933912593e-02
      -4.7972955797649756e-02 -7.0226591189346506e+00
      -3.8924684929361177e+00 -4.0506211947463715e+00
      -2.6298998409784828e+00 -1.1057231333207673e+00
      -2.0806340039694358e+00 4.3641797247360756e+00
      9.2925451699793111e+00 6.7809865909020619e+00
      6.4302294402585503e-01 1.0722836208727968e+00
      2.8391209999651729e-01 7.5583261662070345e-01
      -9.6998603950800799e+00 -1.6732522277703605e+00
      6.1041512201234915e-01 4.4572784057889629e+00
      -2.0701521741047771e-01 6.3302704115856629e+00
      -4.0880860597266588e-02 1.0304499742395767e+00
      -7.8310749883705268e+00 -2.2694155009113806e-01
      -5.6642093081871234e+00 1.1988223255729511e+00
      1.0597584800918998e+00 -9.2514488660059513e+00
      5.4547231325408472e+00 3.1827794055491223e+00
      4.1491156943228829e+00 3.1669005616131440e+00
      -9.8399744737941341e-01 -3.9118504502442153e-01
      -6.2241168294586018e+00 -8.3728780587837182e-01
      6.9142221178798344e+00 -2.6312320123929398e+00
      7.5404663562319616e+00 3.5864970511259462e+00
      -8.4422540616843775e-02 1.3381967326913875e+00
      -6.2800514872683646e+00 -7.5110667402724438e+00
      -4.3608951715099709e+00 -7.8892721581404874e+00
      5.0048498120425142e+00 -4.3964522193042237e+00
      6.5633658201198086e+00 -3.1967243476352714e+00
      6.2802119567925641e-01 1.4846486304697224e+00
      -3.6700606983066728e+00 -2.2614030396566891e+00
      -4.0048579538800428e+00 -5.2514655539397390e+00
      -3.3953744912888417e-01 8.0144260386116208e+00
      -4.4157581779123412e-01 -1.0782793125521115e+00
      3.8754055137137233e+00 1.2791175710801397e+00
      -3.5529637408753985e+00 4.4274493195910249e+00
      2.5831838542246817e+00 2.0201699935965856e+00
      -1.0823255174175768e+00 -1.1707877918243778e+01
      2.7236135135191614e-01 6.0474097845022146e-01
      4.5538053047144631e+00 4.2276519315067693e+00
      4.2097923594600166e+00 3.3627572153163845e+00
      4.3336839367166252e-01 -1.8339296328842563e+00
      2.5724349357794263e+00 -5.2402163010367158e+00
      -1.8123485517898192e+00 -8.9622110020541568e-01
      6.9481448190174613e-02 3.5551849022869408e-01
      -6.1703199399443704e+00 -5.6058683843739052e+00
      -1.0565284149262364e+00 -4.8550521252361740e+00
      -1.2178852015937471e+00 -5.1455120177337621e+00
      -6.8349293615044138e+00 -8.4986031919482219e+00
      2.4392320038295168e+00 1.5966294127919021e+00
      -7.4267306749956044e+00 -2.1425617949782583e-01
      -1.9482244345700068e+00 -6.1770639652206807e+00
      2.3815530196747310e+00 -2.8899478457019772e-02
      9.9339933777609593e-02 2.2585227800085890e+00
      -2.9202212694167251e+00 1.5766253656499025e+00
      8.8520997916412956e+00 2.2974464883810071e+00
      7.7264148978971532e+00 -7.4915115624813460e+00
      5.5458244977133679e+00 -3.3035328809011748e+00
      -2.2788439815268728e+00 -2.3238971969255471e+00
      -9.5692119017531336e+00 4.7558232830306997e+00
      3.6695176199179427e+00 3.9859425414884138e+00
      1.6039464837922768e+00 -1.0674623050598802e+00
      -5.3607192809465447e+00 -7.1027238355254578e+00
      2.9520471964306489e+00 2.3605306568662212e+00
      1.1594407027057974e-01 -2.8940626749880387e+00
      -5.6290229393620237e+00 -4.9562921340961754e+00
      -2.0413702795460518e+00 -4.2774344350144755e+00
      -8.9850779972842449e+00 -2.3927841182294460e+00
      -2.0790698024818091e+00 -2.4338777396118170e+00
      2.8486250443759262e+00 6.4603140330058153e+00
      1.8000813320342759e+00 4.2590153842540168e+00
      -6.6719335719470569e+00 4.3558915704524404e-01
      -1.3214525642667401e+00 -7.8015571288970653e-01
      -4.2651653601886025e-01 -1.4517022358994109e+00
      2.1226325612483445e+00 -1.3750601296028933e+00
      5.2264871696435202e+00 3.4738463229407945e+00
      1.1998802266219160e+00 -8.2325470556944573e+00
      8.1044642714570614e+00 4.7966475009510452e+00
      -6.4503248910828672e+00 -2.1136563238423287e+00
      -5.2266516284827684e+00 3.5936210367826749e+00
      -8.4549633441541037e+00 6.7963884357762847e+00
      -1.9229550595718283e+00 5.6360691121177799e+00
      -7.0106843946489485e+00 -7.4305723914391146e+00
      3.9646719563159807e+00 2.3453028000169482e-01
      -5.2817218134164745e-01 -1.7587243462051276e+00
      -2.0616487073674312e+00 -1.4855796621615003e+00
      -1.7399505676434561e+00 -2.3381873411707117e+00
      -1.9035491320677749e+00 9.0540280642311344e-01
      3.9241739318928111e+00 -4.1719293750337050e+00
      7.8903575220974365e-01 1.2420265214751569e+00
      6.6813006828771782e-01 1.9367841358586360e+00
      9.3757584193466592e-01 -9.8130233804646050e-01
      -1.2310698658753398e+00 1.6074726723991692e+00
      3.7098239642501132e+00 2.5424208884320816e+00
      -7.4837261413654179e+00 -3.3097079987230464e+00
      -6.9790349899102011e-01 1.9891460968734540e+00
      -5.5953789014294735e+00 -3.1935206908034313e+00
      -1.9314299489310842e+00 -1.9824994235769497e+00
      -8.0883301988083218e+00 -1.3216305262171568e+00
      1.3284245574482660e+00 -3.6403331892434909e-01
      -1.2423401258262121e+00 4.1562261277715304e+00
      3.7988332904903871e-01 -1.3706090988657162e+00
      -1.5633837755921796e+00 1.9792659278075719e+00
      2.4928130096717815e+00 -2.1931425159267741e+00
      -9.2537719746031166e-01 -1.5778080176813727e+00
      -1.9796540938814653e+00 -2.2443750121135126e+00
      5.7090072649056833e-01 3.3818864371797499e+00
      -4.0061371489180555e+00 2.6687941382352114e+00
      7.6622218093330796e-01 5.9641035284351762e-01
      1.3374025349051513e+00 3.9328420090048515e+00
      5.0087707153463057e-01 -1.7296911736598402e+00
      -2.5236483315690252e+00 -3.1303228870854602e+00
      -2.6827910366219774e+00 -1.3074365013107554e+00
      1.1502421395170503e+00 4.2439374546364803e+00
      -4.0609283929244044e-01 -3.1770166007472516e+00
      -5.1841602188328837e+00 -3.6890386556143206e-01
      8.1896676438376470e-01 -1.6648584624554568e+00
      -1.2257102656404353e+00 1.8202791553340920e+00
      3.4374626873064469e+00 -2.6027819219374287e-01
      1.1471740185418002e+00 -2.2283118899297776e+00
      9.0938140057697525e-01 -4.2966897797894443e+00
      7.9843660767109015e-01 -3.0098189068539463e+00
      1.8778828243064711e+00 1.8798299748462020e+00
      -7.7421614529754701e-01 -2.3267306741465412e+00
      -4.2048610123992453e-01 -3.2423681057338665e+00
      -3.0832373202854080e+00 3.9179930579621192e+00
      -2.8448385367135862e+00 1.0706757102866580e+00
      -4.2761191038699540e+00 8.2306205873739346e-01
      1.4512609699929409e+00 8.9275697744069765e-02
      3.0173848944777149e-01 -1.9103356093722439e+00
      1.1416785970643377e+00 -6.8476892938877283e+00
      -1.2110106370241192e+00 2.9174661729652334e+00
      -1.5991368587164079e+00 2.6696344479935696e+00
      2.1445270602746122e-01 3.3451555787249534e+00
      -1.2415802104956686e+00 -1.8529615399133341e+00
      -4.3741024994428734e+00 2.1928038935065328e-01
      1.4963173006146628e+00 -2.5578896810714730e-01
      2.9874977128137510e+00 3.7497788048601532e+00
      -3.7280027552319548e+00 -2.2681704899332726e+00
      -8.5469945259844362e+00 -1.6577194826506572e+00
      6.2019334812565656e+00 -3.1368079780118752e+00
      -3.1974325018764516e-01 1.0905255151163546e+00
      -4.8229714793087126e+00 -4.2265961252365702e+00
      -4.1598542362182123e+00 -4.3052523564162204e+00
      -5.0071763501727706e-01 -4.4416896240164476e+00
      -6.0121938186771906e-01 3.4035422934077220e-01
      -4.7203509504389931e+00 -1.6705158020134303e+00
      2.7438173805223753e+00 3.2774369144028368e+00
      1.6767693989815040e+00 -3.1529736713996065e-01
      -1.2511498545456112e+00 4.2489923442967781e+00
      1.1794451536992117e+00 -3.1096721742326685e+00
      -1.1865196609294817e+00 -1.4242276111985588e-01
      7.4561633019604834e-02 -8.7520099770159854e-01
      5.5455541591686891e-02 8.2814819149390106e-01
      -2.9909778619016603e-01 -2.6217871753893549e+00
      -2.5059375091610714e+00 -3.3409431070540898e+00
      3.3402003898583899e+00 -3.2783168842629138e+00
      2.6619589214602657e-01 -5.5415330643887262e-01
      9.7873094365485580e-01 2.6285046707430588e+00
      1.3376936620281905e+00 1.7483081127116886e+00
      5.8595217921637854e-01 -1.7593221824167452e-01
      1.3366257410269324e+00 5.9797555597483643e-01
      -6.0907524829645991e+00 3.1286517548222110e+00
      3.6674115861096226e+00 -2.7026614355673040e-01
      -2.0006713636142448e-01 -4.3567223400510722e+00
      2.7026059729615257e+00 7.6909031757413759e-01
      -8.3622409810775755e-01 -6.8396540283501750e+00
      4.8871335549258568e+00 1.9079581045305749e+00
      -7.2888799195124498e+00 -4.2669213844802734e+00
      -6.3964622287916784e-01 5.1856192412197011e+00
      1.4704636626121399e+00 1.5664815655929247e+00
      1.1256493811085788e+00 2.8071989081504195e-01
      -6.0977496759725258e-01 -5.0250608120984639e+00
      -1.7180280607788104e-02 -1.9272648153528260e-01
      -2.3392892912368404e+00 4.7742504470301688e+00
      -5.8986015080725707e-01 -7.2984256612794827e+00
      5.0036164379848342e+00 -5.8438203153368669e+00
      2.8438394422526003e+00 6.1330430484869281e-01
      -1.9601877708938287e+00 2.8623808285563968e+00
      7.4153164933260962e-01 5.5725535934588821e+00
      8.4848777104275275e+00 -4.9043902331137339e+00
      3.0562679957453462e+00 1.7148340943847332e-01
      -8.9616493664923951e+00 5.0934307864539017e+00
      -3.5198130156720144e+00 -2.6643536595278796e+00
      -3.4787541706497016e-01 1.7251484727638369e-01
      6.7414795661792706e+00 -1.6555834244361767e-01
      -2.7248016127463166e+00 -9.4530568129596908e+00
      2.7929012234828232e-01 5.4092872152436042e+00
      -2.8747481522654237e+00 1.8478781868189978e-02
      1.1847516662792419e+00 7.3631001106069931e+00
      -1.4251989609511482e+00 1.6136607312393434e+00
      -2.4444398532338769e+00 4.3842219044191291e+00
      -2.9001875231362564e+00 -2.1004211219802964e+00
      -7.4975580712382098e-02 -2.3217265560742706e+00
      -3.4893664198051404e+00 4.5816483908367776e+00
      -4.5510829296842958e+00 1.0251061692682515e+00
      2.8084393880971872e+00 1.9925589600236162e+00
      8.5788143620259714e+00 -1.3947201043936383e-01
      3.0086783947053757e+00 1.9013973658890113e-01
      -9.6841230010186496e+00 2.8345705000347370e+00
      2.2331536672826933e+00 -4.7203624707084571e-02
      2.6816279889956549e+00 4.7480826878660451e+00
      -2.7325693042426273e+00 5.2608663437216192e+00
      -6.3694179755338558e+00 6.1419850529131870e-01
      -2.1846721215225734e-01 -1.7641959616136660e+00
      2.7757499986770044e+00 3.8989704519736983e+00
      5.7588191793140711e+00 -6.0462724118191069e+00
      7.1332861203710940e-01 3.1979569500699678e-01
      1.0427974526871358e+00 4.4707558288216012e+00
      5.4541729186315946e-01 9.7992348462095382e+00
      -3.5150771818876745e+00 3.0661031616374737e+00
      -7.0226826525425790e-01 1.8163343719489973e+00
      9.5987880437321653e+00 6.7126442420833801e+00
      4.2420339764291338e-03 7.3353720094538388e-01
      -5.4606384022925536e-01 4.9442430538840645e+00
      -1.2731838932728735e+01 -5.3060614206715684e-01
      -5.8106002633880420e+00 -3.6864447326010970e+00
      5.0743640607473486e+00 7.9580101348292365e+00
      -2.1680671267777618e+00 -8.9016708710454004e+00
      -1.3597456722369852e+00 4.1959835853242389e-01
      -2.2314650470126147e+00 -2.3246535508146047e+00
      9.5612386459923400e+00 -3.6763904010223523e+00
      -6.0555662882040098e+00 -1.3513291291430541e+01
      3.0756217551608462e+00 2.2781657215617193e+00
      1.0248282589112374e-01 -8.5142217227217432e-01
      -3.9042356905404332e+00 4.5941825333575084e+00
      1.6318362852055108e+00 -2.6648481141555833e+00
      3.3774944943535556e-01 -9.2911843612458149e+00
      6.4944542039429178e+00 1.4560326424924861e+00
      3.0349181515906154e+00 -1.6775605692239883e+00
      -4.2071417258451707e+00 -1.6529614914931734e+00
      -1.2964882360191352e+01 7.1798796585540492e+00
      2.4388621117599056e+00 5.5016111438138351e+00
      1.4888224363407551e-01 -6.2577989669451339e+00
      -2.8519166283575137e-01 -4.0022727713568864e+00
      -1.5343701810262309e+00 -7.0947637593162236e+00
      -8.6060125369990650e-02 -1.2231172888591078e+00
      -3.4782260041516322e+00 2.3895832587034986e+00
      -4.1587678860040631e+00 -3.7474757125437179e+00
      3.2658379883036144e+00 -1.9020664033745487e+00
      7.9651220315670699e+00 5.4845368725950427e+00
      3.7065013888337814e+00 -1.7224329195893223e+01
      -3.3563882782035539e+00 -5.1637690800379463e+00
      -2.2398779437215341e+00 2.8356756910927721e+00
      4.0103989495110390e-02 5.6934743365694587e+00
      -4.5922890397198446e-01 7.1911489069154766e-01
      -3.4509395976543842e+00 -1.0879528558497288e+01
      3.8623573742159287e-02 -1.3432125229108282e+01
      4.0532601487732833e-01 -8.7157029199907274e+00
      2.7282866067810463e-01 -2.8931077907913902e+00
      -8.0376038089761903e-01 -2.3387696733228434e+00
      2.5158687831645660e-01 1.4485854409419177e+00
      -6.1470518095330116e+00 -5.6947144445467917e+00
      7.3911374192188795e-01 -3.8455190880794317e+00
      -1.5139087887427780e-02 -2.8538486220097168e+00
      1.9936873517004277e+00 3.9260164387910037e+00
      2.3996110478540320e+00 2.0705644737200233e+00
      -6.1622141041863643e-01 -2.5699908720534990e+00
      -3.2423535898758669e+00 5.7378528937284008e+00
      -6.0340314206421866e+00 -4.6747816269901925e+00
      9.0715302494590961e+00 4.4914496931972572e+00
      9.0449480016753174e+00 -3.2669181368285199e-01
      -1.6726386753611737e+00 1.7429430761950797e+00
      -1.9765243015913534e+00 2.2520713612826004e-01
      1.6995433353298411e-01 4.8866338491671091e-01
      7.6662142602045922e+00 -5.1742540887226673e-01
      -7.3363389768169673e+00 -3.6316957074681899e+00
      8.4407439488138736e-01 -6.9604497012274855e+00
      -9.9943789614340730e+00 -1.0413079039596280e+01
      -1.3142057274506629e+00 4.4704183776436466e+00
      -3.4230319106883768e-02 -3.1042795836841912e+00
      4.0086483483442752e+00 -3.1394879319004034e+00
      -2.4951105508168125e+00 -7.5720331992580379e+00
      6.6433215113760702e-01 -8.5080424821709758e-02
      6.5759366582759782e+00 -1.9492398688533472e-01
      8.6768186404441838e+00 5.6524044918164833e+00
      2.2400465507139709e+00 -1.1575773240340321e+00
      5.6909111612025864e-01 2.4096657940690576e+00
      -3.7262771839200033e+00 3.7878893209488464e+00
      4.2179374043065021e-01 1.5944118659161675e+00
      -5.3581563031664494e+00 8.9554661427314675e-01
      5.6503926183943562e+00 3.8100022790225813e-01
      -4.7962029147715777e+00 -1.8476777062086289e+00
      -4.6059285139813211e-01 3.3657569872698168e+00
      -8.4291692140878038e-01 -4.1621501928793059e+00
      4.6513963857547882e+00 -8.5899207629451035e-01
      -6.6972704226157713e+00 -2.1910618648887712e+00
      2.0782783822404349e+00 1.1344910262883066e+00
      3.5827820495973852e+00 -6.3756881772066631e-01
      -2.3491573564178321e+00 -1.1348172306071462e+00
      -3.5255816444947694e+00 -1.4123161787153431e+00
      3.0658554162134184e+00 -2.3364438953954290e+00
      -1.6507170290799265e+00 -5.7345384191827620e+00
      6.5154187709305322e-01 -2.4460214952961858e+00
      4.1008318630953937e+00 3.8050788997229081e+00
      2.9533649287806298e+00 5.4846413088000268e-01
      3.0864298822949423e+00 -1.3664994004456752e+00
      -2.5040149639344227e+00 -3.3785247282261816e-01
      5.9294122982349533e+00 3.9969563444574177e+00
      -1.5945034466530754e+00 -3.1219962725416912e+00
      -5.3472608020627821e-01 -1.0318250862221769e+00
      3.9357950909888606e+00 2.6348216139389371e+00
      -6.5960029428214328e-01 -7.1368271852748721e+00
      -3.2052291267951700e+00 -6.8341474616533560e-01
      -4.7056177151322731e-01 6.5554030289874152e-02
      -1.2635017404747986e+00 -4.4361144506538768e+00
      -2.4839472137365450e+00 2.9544771433875421e+00
      -4.9579367377171080e+00 3.6499459567684918e+00
      2.2788965084965682e-02 4.4400218924481978e+00
      1.1462471151519808e-01 7.9146036008774201e-01
      3.9194293724765510e+00 -1.9759734735814918e-01
      -4.1349879191941179e+00 -5.4478882916856026e+00
      -1.0744250975939540e+00 -4.7618081834133186e+00
      1.0462450869469817e+00 4.3257265910792819e+00
      -2.8222676829694278e+00 -2.1219730682412932e+00
      -2.6986510750470418e+00 8.3949575505484575e-01
      6.2687133660512129e-01 -5.3824865775160102e+00
      1.6034857086197785e+00 -6.2324167687043115e+00
      2.7750986629050671e+00 7.4585424556631397e-01
      1.5121809583826368e-01 -2.4654616517699903e+00
      5.3652701648443166e+00 -3.5568744279461697e+00
      1.3859312543489499e+00 -6.0115237449522176e+00
      3.5133371986285340e+00 -2.6613006880531249e+00
      -2.6988961842383516e+00 4.7710150181265059e+00
      -1.3315281511600607e+00 -1.1292522867526136e+00
      -1.8797378935738267e+00 -3.5001504930149192e+00
      6.2331576333728806e+00 3.9355877744658203e+00
      2.0162393872666589e+00 -2.8353171110780067e+00
      2.4376208896079419e+00 -2.3700736035339620e+00
      -2.6142316211908687e+00 2.4480818619615360e-01
      2.7568295418438296e+00 -3.2034849851838687e-01
      -3.5245803229948458e+00 2.2513536728684818e+00
      -6.3090402510556283e+00 3.5273741585011709e+00
      -2.2574950830259934e-02 -1.3633383041947613e+00
      8.4724247880783476e+00 -2.8372915176943172e+00
      -5.8464463696341786e+00 3.4468716841481855e+00
      2.8623717994564482e+00 1.8259838530082642e+00
      5.7978517221592805e+00 -1.4133279178258917e+00
      -2.8460551882376905e+00 4.3391115490085497e-01
      9.8315234601054546e-01 -3.0944574419711142e+00
      8.2497122903341058e+00 -4.2468882022271908e+00
      3.4494292773826141e+00 -1.5321849840309949e+00
      -2.3280148150446731e+00 -3.2544909823756876e+00
      -7.3103880063486466e+00 1.7352892656342347e-02
      -3.9932499940124161e-01 -1.2244241941748326e+00
      4.1064748746304476e+00 -5.1252474415095248e+00
      5.7192129416186024e-02 -2.0312123799974953e+00
      -1.9509755761278811e+00 -2.2291051259173238e+00
      -1.7252786873154941e-01 -4.5500941666197231e-01
      2.4231452783977021e+00 1.6095967806691647e+00
      -3.6091134188463929e+00 -4.1457931809161757e+00
      -1.6103743571203069e+00 -3.0752715348373799e-01
      3.2048236963597282e-01 2.9479947493573042e+00
      3.4100611262622019e-03 -9.7959818509665442e-01
      1.7998713847141363e+00 6.7565690310995228e+00
      -1.4079940629697170e+00 -3.2514300034912353e+00
      3.7802507537478429e+00 -2.5546559270717855e+00
      1.1440648219260094e+00 -5.0718255716886895e-01
      -1.7363836262592516e+00 -2.7925134343182392e+00
      -7.8079624475228526e-01 -1.1790361297528145e+00
      -1.4940528143629770e+00 -1.6561352800732827e+00
      -1.1698480655932730e+00 2.5382915228068387e-01
      3.9561538653657444e+00 -4.1235897502803454e-01
      -2.3065003633951529e+00 1.4103514591116816e-02
      -8.6816916951491227e-02 -1.5299247018192013e+00
      8.0698726549222677e-01 4.3636647479576389e+00
      2.3334261251986259e+00 -2.2117597549743571e+00
      -2.6030196618106034e+00 -1.1508635987651206e+00
      -4.5091819997229088e+00 -1.6524648188678190e+00
      1.0367213462212457e+00 -1.9107014531216802e+00
      -8.4897914920231243e-01 -2.9814511330362126e+00
      -2.8182674653820445e+00 -4.6050541061212620e+00
      4.4003175069554068e+00 4.8618052222667281e+00
      7.3502357197715984e-01 2.2214231624208978e+00
      -3.9648855646105052e+00 5.1097599448818940e+00
      1.0258044752339726e+01 6.9900682500287914e-01
      6.3973887852601263e-01 -1.4375450608484213e+00
      -3.5189130064863949e+00 -7.9347594444373371e-01
      4.3836641891764101e+00 -3.4106552752040031e-01
      -1.1362175656486098e+00 2.6590643332047872e+00
      1.3820232986344634e+00 -5.2016395680696563e+00
      6.7047743733503007e-01 6.3305754596236312e+00
      -6.1319212899877238e+00 3.7342553994709773e+00
      -1.1304356516464038e+01 -4.6850475556299402e+00
      -3.4285292012941276e-01 -2.4443137590460837e-01
      1.0120998569939145e+01 2.5115570886644591e+00
      -1.9896081774950461e-02 -4.3828385744941318e+00
      5.0818303961224762e+00 -2.7664797452693666e+00
      -8.1318558851443914e+00 2.0241638822701518e+00
      2.1881701443437924e+00 -2.4066162159657414e-01
      5.6828968001315401e+00 1.4447085901980461e+00
      2.4704112973737837e+00 -1.0198992818982072e+01
      4.4256701126731794e+00 2.8093409769686866e+00
      1.0031101385008654e+00 -4.7810931510673162e+00
      1.1860351634185409e+00 1.4183917411636371e-01
      -8.5599289477464335e+00 1.5255445232049141e+00
      -2.8241054637660623e+00 4.8514826523262988e-01
      1.8644926888067697e+00 7.0293648058731273e-01
      1.5818860561916549e-02 1.8389118040348562e+00
      -6.0883866022451825e+00 -7.2477125125301256e-01
      -8.3515867697386099e+00 -6.3647686367201297e+00
      6.5497225779296953e-01 2.0102553470970608e+00
      -7.5927415588734632e+00 2.0334283547756211e+00
      -8.1687309845429592e+00 3.7155594719044798e+00
      3.2082042156490143e-01 2.5874874611198201e-01
      -2.3429488671402687e+00 1.3847685214502805e+01
      8.3844677339592728e+00 3.1113454662606932e+00
      1.1904254965665562e+00 1.0050431994081299e+01
      -2.8568634119900023e+00 2.4017219896903592e+00
      2.4441104208926781e-01 1.1638734024552372e+01
      -1.0773370509098866e+01 -1.0003056167450968e+00
      8.0396268219288647e+00 1.6951978873648179e+00
      7.8831824621498638e+00 -2.0534773581177497e+00
      -2.6202303286547948e-02 5.6126087580416417e+00
      -8.9935454444735523e+00 -4.4464993644241950e+00
      -1.0779263561493750e+01 2.4544434823298533e+00
      -1.8813506195257672e+00 -1.1786096733602203e+00
      2.4922335594287048e+00 -1.3502953544703167e+00
      -2.5920500076205283e-01 -1.0216339589732483e+01
      7.6700440979085220e+00 -1.0210295098123362e+01
      7.7151548940805927e+00 -9.4667304220546011e+00
      2.7580929229182938e+00 -5.4575626139311195e+00
      -4.7537588039742538e+00 -1.4930654086914972e+01
      -4.0185749408852095e-01 3.9237102834715238e+00
      2.3215041682717030e-01 3.8937785837697092e-01
      -1.0216560868151367e+01 4.2068382145071874e+00
      -5.1820805464679276e-01 2.8542652578757939e+00
      4.1516416162146488e+00 -3.5168133587482462e+00
      -7.7968760952372729e-01 -3.6473501096217711e+00
      1.2113690616698503e+00 1.7636208601862173e+00
      -2.2699261354383959e-01 1.9604145233837489e+00
      -7.2107415652265416e+00 1.8573528695920281e+00
      -3.6434923021568659e+00 -2.8244050432222152e+00
      -2.9785675129504564e-02 -3.0579989083009922e+00
      -4.0647287542716688e+00 -5.7726334958544898e+00
      3.4107935829305731e+00 -3.4780682997611700e+00
      -4.2516611293642086e+00 -2.5531018563568080e+00
      -1.2549806866851585e+00 6.2751355750729347e+00
      2.3222535617906019e+00 -1.4456395143596057e+00
      8.2246433746632075e-01 -3.1068910453634087e+00
      5.1271549826587668e+00 1.8131421286149294e+00
      -6.1502890328010029e-01 -1.1250528043023509e+01
      -3.0378210592569528e+00 -2.5013122017515471e-01
      8.3963961597542602e-01 1.3813136005744753e+00
      1.8814072096511894e-01 -1.4000087625389888e+00
      1.1222578347464680e+01 2.4797884299246395e+00
      -9.6716298193249617e-01 -2.4847468551916843e-01
      1.6219457607253641e+01 -8.8761629105453306e+00
      5.9044522368969128e+00 3.3833817510518623e-02
      2.8139417338083437e+00 -6.6777444659555538e+00
      -2.9856677146626365e+00 4.3571478371099266e+00
      9.6857164675948026e-01 -1.2042988480452115e+00
      -7.6348970324244403e-01 -1.4521648989151656e+01
      2.5625639010056050e-01 -8.1085156611748488e+00
      -3.8916803876613693e+00 7.3943122197182900e+00
      -6.8636173173986830e+00 5.6378250517780160e+00
      -4.3404111912279815e+00 -2.9578682098488280e+00
      -9.9826538781179828e+00 5.2647331732805744e+00
      1.6081472615338104e+00 1.0125665937062342e+01
      9.0901390007598049e-01 4.9904545652990597e+00
      6.7684370431730114e+00 5.1677897897866831e+00
      4.5579838062264368e+00 -9.4439320623511662e+00
      1.7867002245093080e+00 6.9350430994437504e+00
      -1.7174472333121298e+00 4.0654222596915740e-01
      5.4209013158470432e-01 9.2182380650517437e-01
      1.7995834317281258e+00 5.3152025616250453e+00
      1.5793883052559676e+00 -3.1672734165966410e+00
      1.6363914661936551e+01 -3.5284018425643904e+00
      6.9401256541251177e+00 4.3586722273821445e+00
      6.2799406731177223e+00 -1.5108181178830207e+00
      -3.2688152258150396e+00 -4.7701642598203192e-01
      3.9009838873335090e+00 1.5475835151573680e+00
      -2.3326686790835653e+00 -7.5974839802688461e+00
      5.6125945898779195e-01 -6.3044535573437086e+00
      5.7024253117458539e+00 7.1829172117595617e+00
      -3.1995100100662515e+00 2.9650314473422501e-01
      -2.8189170767876015e+00 5.1555287086592483e-01
      -9.3264531330918956e+00 -6.5858199442515608e-01
      2.4159818390557697e+00 1.3728699133375610e+01
      -2.4464665482300858e+00 -4.7414716170602583e-01
      6.5753065835642293e+00 -1.8647869325241131e+00
      1.2945396336312949e+00 -8.1937923202282636e+00
      3.9364225111786153e+00 9.1138281221518671e+00
      1.7542686691063585e+00 -4.4708279138099662e+00
      -6.0481033893731173e-01 -9.0629814884725253e+00
      9.2073188926898208e-01 -3.5428510798539836e-01
      1.2258017172849891e+00 -3.9449274181293479e+00
      -1.5174199022157897e+00 -2.2208961151164606e+00
      -7.4579497031311410e+00 4.8767322347790030e+00
      1.9084175666103560e+00 1.6962182878541818e+00
      -3.0592803846360481e+00 4.6788343066832155e-01
      -3.1458973596377615e+00 4.0923259217352141e+00
      -5.5258559166911914e-01 -6.9708544875690870e-01
      2.8001407636781468e+00 -2.5104176970488905e+00
      4.4726662779942981e+00 4.3755896276728601e+00
      -1.6336885462258477e+00 2.4022229889949283e+00
      2.0676929690231858e+00 -2.8688431640280094e+00
      3.1890255561890886e+00 -1.5945408366313762e+00
      6.3742079938221261e+00 -1.9058001484014186e+00
      -4.6412711220111449e+00 2.8748105387777927e+00
      -2.1163251866443495e+00 -3.0534290501281287e+00
      1.0303526700845791e+00 -6.8092757063303297e+00
      -4.5340749482268814e+00 3.8125929803253471e+00
      -6.7335007012451467e+00 1.3286680317833284e+00
      3.3166917706955329e-01 -1.3385928162048568e+00
      3.8031041059291035e+00 -2.2513640192287205e+00
      1.1253560162530378e+00 -7.3436734578265106e-02
      3.9944363894842492e+00 -1.8746283433503008e-01
      2.4886712319644047e+00 3.5490322536631611e+00
      -4.7018124556151497e-01 6.8150900036615338e+00
      3.0581008338599220e+00 -5.1109895446439912e+00
      -3.4095932826694479e+00 3.1785242940612410e+00
      1.8195060164356343e+00 -5.0362687595650906e+00
      -5.5508517879860927e-02 -3.9980479957701416e+00
      -2.0946420949103013e+00 -1.2394713600096545e+00
      -2.7505854205844757e+00 3.4493207071014407e+00
      6.7120925384336994e-01 -3.4010501143565102e+00
      4.9632029585922552e+00 5.7231014792621293e+00
      2.6747296594189240e+00 9.4598469555331699e-01
      -4.3652676361761111e+00 -4.7168447170531436e-01
      6.8446176828620953e+00 -3.2638877661374521e+00
      1.5945932917538075e+00 -3.2456202057219814e+00
      -2.4966076788781533e+00 1.4436620384314042e-01
      -3.7009954226884911e+00 1.0879473766054479e+00
      -8.7200564500302868e-01 -6.8160091426884983e-01
      2.0471984401391881e+00 -8.1583877734124055e+00
      4.0454027092102933e+00 4.1699297502073379e-01
      8.0560870141787533e-01 -7.9759386560055470e+00
      1.3561750716037748e+00 1.4457859128528521e+00
      3.9161779990914976e-02 -3.6867881271043936e+00
      -8.6320863181276186e-01 8.6328455400412774e-01
      -5.8921595333185488e+00 6.1708623572369525e+00
      -3.3376710867982071e+00 4.6632500141152916e-01
      -2.1073771260748575e-01 -4.7034090605252192e+00
      3.6772226271329496e+00 -2.0839729165987048e-01
      -8.5161506578307544e-01 2.1264857924272365e+00
      -2.7896037105522742e-01 -6.2870826143195773e+00
      5.5912279280884114e+00 8.2999469416899530e-01
      -2.2325904223722648e+00 1.6894956939339638e+00
      -6.9367455573231105e+00 -2.7506573896609505e+00
      2.4305591810023062e+00 -5.9360561705022139e+00
      4.4649782220152865e+00 -1.3141277403821539e+00
      -4.7262724579278323e+00 -9.0602383399007863e-02
      -8.2504812535559271e+00 -1.5262274356695187e+00
      -2.2887040825179775e-01 -1.9874643390561706e+00
      6.7114414682484336e-01 -7.3687966199661681e-01
      6.1013759235549925e+00 -3.1200291724114058e+00
      2.7626389311058763e+00 1.5900095640889751e+00
      -3.9256025383454500e+00 4.5517311319073679e+00
      -1.8634791042380092e+00 2.2221465327153114e+00
      -2.7102686375367120e+00 7.4313159449497257e-01
      -2.1711817799857176e+00 -1.5455079205102578e+00
      1.0565108360278928e+00 5.0629503166903076e+00
      -4.3266127028221933e-02 4.7203594562381630e+00
      -1.1365244828253959e-01 1.6917263971709022e+00
      3.6152683621921717e+00 1.9819292038935528e+00
      -5.3068974050562112e-01 4.8208401936167720e+00
      -5.7881752450957800e+00 4.6770907355055052e-01
      4.1989445607904887e+00 -1.3163009424703818e+00
      -2.7984777739752514e-01 8.3230194269321556e-01
      1.3368025345046088e+00 -4.0037300568923850e+00
      -1.6824326619626626e+00 4.8456095249880864e+00
      4.9730223409489621e-01 5.7017252910793159e+00
      -1.2040197333215474e+00 3.3175000140157040e+00
      4.5908462045697779e-01 3.6328545478441883e+00
      -2.9669336692426440e+00 5.9628891815216145e-01
      1.6199298275211655e+00 2.2476837689225895e+00
      2.3101982716823652e+00 1.9862235958322672e+00
      9.6528280553032364e-01 3.2672774250696364e+00
      1.5004772209115107e+00 -3.3408783477504733e-01
      4.6854758101233971e+00 2.9381230418163331e+00
      -6.0634595845470329e+00 -1.3571150322790078e+01
      -3.2258065896038839e+00 4.6404941376561126e+00
      -5.6321418278975444e-01 5.0340591654193312e-01
      5.1906414134096623e+00 1.0117158183669778e+01
      -3.0446112403655792e+00 5.7983229650669745e+00
      -2.5271425480228680e+00 4.6252524191222673e+00
      -5.7353957977545145e+00 2.2747609396644406e+00
      4.3005683579893041e+00 -2.4369187996908690e+00
      2.7409251305148836e+00 7.1834079939734719e-01
      -4.1530500499068337e+00 2.1047535596079299e+00
      -1.1938965079559459e+01 1.0966095505361270e+01
      -4.0849038831129150e+00 3.1147536882948250e+00
      -6.8437767581413036e+00 6.4348243296755605e+00
      7.6465117021437143e-02 -3.9834645189039466e+00
      4.9940582338792500e-01 -5.1791456833171061e+00
      9.7105779003011694e-01 2.4266780762443227e+00
      -1.7989190325794713e+00 -1.8575955114591685e+00
      -7.3471456799681150e+00 7.9152736974450804e+00
      9.6831044318299786e-01 3.0294035889432962e+00
      1.2483981773347189e+01 -3.4473782335024490e+00
      5.1145715402814114e+00 -5.1250000694524882e+00
      9.9381109247558044e+00 5.4492607818450747e+00
      1.3733133378252689e-02 -1.0610581508969696e+00
      -2.8662355889852762e+00 -3.1695625597785682e-01
      2.2503694369857061e-01 3.6817055378186399e+00
      2.8262584770635262e+00 1.2263692291887873e+00
      -8.3485618942772959e+00 1.2125857258835667e+01
      -6.5827458927837659e-02 1.6254154637842579e+00
      1.1991477050441515e+00 8.6160278768322207e-01
      -2.9936783090961687e+00 -6.0447715053347251e-01
      -3.8358160129809287e+00 2.3931829650552543e+00
      -1.2566359741618568e+01 5.1230833797683717e+00
      -4.1911089276394060e+00 1.2031224920891974e+00
      2.9751916613271029e-01 2.3934207481919061e+00
      -1.3982083535972947e+00 -2.8118126261275291e+00
      2.7379996520321899e+00 5.5210351302034173e+00
      -5.2134562423505439e+00 1.2893886889378123e+01
      -5.3433795032439511e+00 -5.4906947344420693e+00
      -1.6671638558058395e+00 4.3900338017493565e+00
      -7.8197560988653407e+00 -3.8483306885379776e+00
      1.2494118340410505e+01 4.2693658075328207e+00
      6.7433368440689021e+00 -3.3484254698425797e+00
      -9.7999718863092267e-01 3.0770021628033306e+00
      4.5034411832985324e+00 -1.0020875710838000e+01
      -1.9106887051328696e+00 4.0193323330806869e+00
      2.6811837551412747e+00 -2.3197670640114518e+00
      -8.1550090292138115e+00 1.6384639618014087e+00
      -2.9357432405095829e+00 -3.2405419282564165e+00
      -7.2237155463968128e-01 -1.0131003543481386e+01
      -2.5767586169650514e+00 -6.1677397419065425e+00
      -4.7560965866606569e-01 -5.7592987423584150e+00
      1.4508594940003194e+00 -6.0146424862576908e-01
      -4.7584256816251624e+00 -9.4116096116986512e+00
      -8.1121186079265786e-02 3.9676482175376817e+00
      -2.0820826380288415e+00 -8.7928447949352151e+00
      2.7906608427748031e-01 7.5836231275053132e+00
      9.2388748401612353e-01 2.9424370579871781e+00
      -8.2322008408340839e+00 -7.7183068901649516e+00
      -4.3627311759998433e+00 2.2298604721372652e+00
      -3.5454736566512740e-01 1.8210073414805901e+00
      -2.1623444226300363e+00 -1.4632220506337632e+00
      1.0147625764350868e+01 3.1329128837912128e+00
      6.3260251588715444e-01 3.2222102733097424e-01
      -3.8349160021439181e+00 -3.9122890247422677e+00
      1.1470998653608526e+00 -2.4555061888731702e+00
      4.6913236887702814e+00 4.8451345052647472e+00
      -1.9229614540641005e+00 -2.1088976411793752e+00
      -6.1262065780290849e+00 1.2753490115040897e+00
      -9.0846642678110168e-01 -1.8893092021538562e+00
      -4.6498851539174693e+00 -6.5447163365351585e-02
      7.9592475430003500e+00 -7.5296359894732987e+00
      -2.6975224407872669e+00 1.3187276094661253e+00
      2.8408620041565413e+00 -3.6259166324284848e+00
      1.3393012816062827e-01 3.4925473818152730e-01
      6.1169869673017887e+00 -3.0110736478562456e+00
      6.1006449661327755e+00 5.2992307891538406e+00
      7.5607420218450838e-01 -4.1356297888101414e+00
      1.1480087740058066e+01 9.4161649202682458e+00
      -5.9282311491078747e+00 -1.3868949505829062e+00
      -2.8162256913017307e+00 1.9290506476389480e+00
      -5.6363966411070399e+00 -3.8464201951452774e+00
      7.9279221000162172e+00 -1.0225720280391668e+00
      1.4138583422732232e+00 -3.7964339038951009e+00
      -9.4121271751551632e+00 4.4344248895120160e+00
      1.2527897856977139e+01 -3.1671816368750387e+00
      -2.4473602130199454e+00 8.8582499888102397e+00
      -1.9815073816978319e+00 9.7459471230525563e-01
      4.3129894210728548e+00 3.0691313562161153e+00
      5.6436363890235919e+00 5.1314321141458286e-01
      2.3683350926391436e-01 8.9653713934193480e+00
      -1.5451005891073817e+00 -2.2527035246188571e+00
      -1.8159111595336126e+00 5.9789762742446024e+00
      4.3222573211648525e+00 1.5812544836331290e+00
      3.1687216611082936e-01 -2.0624936670066387e+00
      1.5145932530350967e+00 2.8183692040056925e+00
      3.7277912885709727e+00 3.9010700805039273e+00
      9.3909875925738628e+00 -1.8677647789930381e+00
      5.3988298887212878e+00 7.2618277091681414e+00
      -1.2977884859293429e+00 -2.9754380307415067e+00
      -3.0686973447409698e+00 -1.1357458803974505e+00
      -2.9280278405904685e+00 3.3648666127592404e+00
      3.2727129263797403e+00 -2.3955788775434281e+00
      -3.0847350852278948e-02 -3.3861923396125628e+00
      -5.1305648501610026e+00 9.5881871956976035e+00
      2.1146025947136224e+00 -2.7108592898612924e+00
      2.9996715060746409e-01 5.7209535092797399e+00
      -1.1690038674077234e+01 3.0061442838740843e-01
      9.9069627060944476e-01 -5.5474775348689125e+00
      4.2099288377622397e+00 1.6554452342848547e+00
      7.3891323997753844e+00 1.8436358320361539e+00
      -2.4357194975803771e+00 3.9973710141695715e+00
      1.2392359306426959e+01 1.0977391719922057e+01
      -1.4262294863333931e+00 -2.9523513862979969e+00
      -7.5451904177041529e-01 -4.9437400835491987e+00
      -1.0570614453491618e+00 -3.4072655994274381e+00
      2.6450895985970067e+00 -3.3531578773893043e+00
      1.4070770830427848e+00 -7.3485538807293604e-01
      1.7279265604261622e+00 -1.9546654140621624e+00
      4.8471760962346284e+00 -1.1291676282461993e+00
      -1.5092980942017513e+00 -4.0946918144114851e-02
      -5.0769273523016114e+00 -4.7903814608767474e+00
      -5.9555065902347604e-01 2.4832020301161859e+00
      -8.3334931354719166e-01 -4.0406121342314183e+00
      3.2115071396981878e+00 4.5388464516054619e+00
      5.3937619004241388e-01 1.7339576065272435e+00
      1.2027693164728701e+00 1.9741902921833046e+00
      -3.5990204602499438e+00 1.8688911791882075e+00
      4.1630228247536474e+00 -6.4670010326692458e+00
      -1.0461205993478691e+00 2.4886367032213244e+00
      6.9134410347399236e+00 8.1092546766173912e-01
      7.8322951885108116e-01 -1.2343257945560941e+00
      4.3161344014655363e+00 2.4347286259172094e+00
      5.8760936883767467e+00 -5.5958168628900407e-02
      -2.8692603373858017e-01 -1.1964998932974988e+00
      3.1007081048347995e-01 3.7446940495277020e-01
      8.6727643234184071e-01 3.0793884219938361e+00
      -2.7611022420434037e+00 3.9131659059175483e+00
      1.7724250094722929e+00 1.6834293109342202e+00
      4.8881578213748150e-01 -1.6807598898691860e+00
      9.4353728481664223e-01 -2.3967343204869671e+00
      -5.3212203637583784e+00 8.5852469102315188e-01
      6.6883781607435520e+00 -3.8781454362793171e+00
      7.3617967377437021e-01 -6.3976930363088611e+00
      6.7586615557652507e-01 9.0705388751434324e-01
      -2.9874205860279868e+00 2.5264087026630810e+00
      -1.3129870732695359e-01 -3.8013351687514945e+00
      -6.1641903847928923e+00 5.1114657326508981e+00
      4.9051088440238744e-01 2.0347390017229539e+00
      2.6271801715600280e+00 -2.2984727149330548e+00
      3.3392148871681395e+00 -1.3355301390095617e+00
      3.4836040297372289e-01 -1.1599194021618138e+00
      -2.5999958267130605e+00 -3.4416298649094030e+00
      -4.4674089564902786e-01 1.3999019456640474e-01
      -9.2974598920503237e-01 5.0508163308654428e+00
      2.2709383667091929e+00 -7.8036971597317715e+00
      6.5072246619702523e-01 -2.9947859228848546e+00
      5.5720139614984623e+00 1.3368366151192117e+00
      2.2243125998963231e+00 2.2779339986654339e+00
      1.7025219597840946e+00 -7.6619036255269428e+00
      5.0611868411030558e+00 1.9688767518031007e+00
      -6.8211005997653675e+00 -7.9177005376677450e+00
      -1.1215696153211777e-02 5.3620820898228527e-01
      3.9334700361058500e-01 -2.2944564332782287e+00
      -1.2339711074360022e+00 2.0376358763948241e+00
      3.7532028495281229e+00 5.8098422784579351e-01
      -3.2487851210966906e-01 -3.7167670782704274e+00
      -7.5244502140954053e+00 8.5727013147701854e+00
      -2.8465866770346420e+00 3.1157909215505275e+00
      -2.9655084194202135e+00 1.7129206354306095e+00
      3.4720879075888966e+00 2.4546358867116300e+00
      7.6226536596193517e-01 -3.2783188993459471e+00
      -2.5425578283767023e+00 -3.2225733340403515e+00
      -2.0835272628755543e+00 3.9323149208273374e+00
      -4.0443708012161356e-01 6.1187586704218877e-01
      5.4276613117038623e+00 2.1235673593301487e+00
      4.7750660486873264e-01 -3.5157830939303500e+00
      -5.0242817827559083e+00 3.6928063441667258e+00
      1.4266001214240995e+00 1.4609750573844582e+00
      7.9167522887523312e-01 -6.3062860359837742e+00
      3.4751875368536855e+00 4.6130025256351512e+00
      -5.0280943809748484e+00 -3.5233189946807992e+00
      -2.4503080808592754e+00 -3.7036756891547991e+00
      1.0977328871423678e-01 -1.1560116355372010e+00
      -4.6968536090261965e+00 1.6681332963418205e-01
      7.1583618163946394e-01 -9.2411416002435950e-02
      -4.6628714496114915e-01 4.6224596039826515e+00
      -1.0861697374508639e+00 -1.6867141208287635e+00
      2.3745118914466481e+00 3.5661866361003955e+00
      1.6523722703247212e-02 -9.6133731430151484e-02
      1.0314222525135157e+00 4.5657174819780009e+00
      6.7565831613112814e-01 -9.5133230294880433e-01
      -1.0273815704869886e+00 -2.5488673164537676e+00
      2.5824647129505482e+00 3.9166550402013027e+00
      -1.4097766504654680e-01 2.7228474096110147e+00
      -1.5416284715404092e+00 -4.9917985425044851e+00
      9.2175256718179432e-01 2.7626037305988088e-02
      -8.3479435511747671e+00 6.9185191486315194e+00
      2.2034891247903192e+00 6.0623028419354581e+00
      -3.9589325934581385e+00 -6.3678848794062946e+00
      1.9632775413070800e+00 3.3799348995918068e+00
      -3.3010827777108669e+00 -6.9074512726108823e+00
      7.4661926253507476e+00 7.9120369525181922e-01
      7.2423817368174837e-01 -4.8007521999850589e+00
      2.0083615118443143e+00 -3.5698090616227147e+00
      -5.7548622369561127e+00 -2.1180428193009817e+00
      3.3348408338893591e+00 1.6075176771140758e+00
      -9.6670996225255639e+00 5.6198221275994857e+00
      -5.2122016249348908e+00 1.9889222573543184e+00
      -4.4107038818384886e-01 -6.0393150959840893e+00
      1.3456650645842301e+00 2.8502089867540015e+00
      3.3837911780707386e+00 3.9275083908524206e+00
      5.5287383852680805e-01 2.1458059112461623e+00
      3.2260322132677515e+00 1.3674419240884598e+01
      1.2291158623002757e-01 3.8149522130382660e+00
      -6.8056511476311847e+00 -2.1222856669463104e+00
      4.5618165582549908e-01 1.2006135649525485e+01
      -5.3957783315650181e+00 3.7923796819023918e+00
      8.1682364124708968e+00 1.6139426547222861e+01
      -5.5316071524806087e+00 -7.7454673576063104e+00
      2.0457154433353826e+00 -3.5822901621234498e+00
      -6.2880577586925868e-01 -7.9847338481449504e-01
      2.7643727853589648e+00 -3.7235379173679872e+00
      1.7640176550642953e-01 -5.1781791541567890e-01
      3.9318026881607948e+00 4.1666810586271739e+00
      -7.0402514945044672e+00 -4.6203742976029885e+00
      5.4942851602116805e-01 1.1790695208222006e+00
      -9.1778042439075200e+00 8.9041247712471066e+00
      1.0008200630560301e+01 2.7837155427846896e+00
      -5.3736419316477306e+00 -1.0304231868742255e+01
      1.0306790950296194e+00 3.6769474656308438e+00
      9.5200944276670613e-02 7.8646341759034977e-01
      -3.5265214593042522e+00 2.0588414174703598e-01
      1.1312453626501351e+00 -2.6603357395155069e+00
      -5.5601111033616391e-01 -3.8760687872410018e+00
      1.6467024362307412e+00 -6.5886018743662307e+00
      -2.4129267511588370e+00 6.7757101989551529e+00
      -5.0532162348288905e+00 2.8918764493763573e+00
      -5.7139123941137804e+00 2.4828200425184632e+00
      -3.8581626456939060e+00 -6.1183721248128035e-02
      6.4705839494633013e+00 -7.7736080150522451e+00
      1.6480033755905243e+01 1.2267414823809244e+01
      2.1160631885659917e+00 -4.5951929295180580e+00
      8.3470845588430187e-01 6.5265379789711431e-01
      -2.7793830020327741e+00 6.6922938338691051e-01
      7.3258706510149825e+00 -2.8237907404604323e+00
      -8.3968919782870231e+00 -3.9258656827622889e+00
      -1.1446589647405661e+00 5.5119679049299339e+00
      -4.9696520397693806e+00 2.6877431096909379e+00
      3.0731962972952820e+00 2.4382881479351259e+00
      -1.0676255609371092e+01 -4.1535755023814174e+00
      4.9882086762017455e+00 -3.2103051555008455e+00
      -5.7485603823326086e+00 -9.7611705519027048e-01
      2.4479190458029518e+00 -9.9271024410661504e+00
      -1.4189845266115142e-01 -3.1520961009025350e-02
      7.5686401099209482e+00 -4.4622454880892377e+00
      4.1325685581812541e+00 2.3024702571546443e+00
      6.3160033076596296e+00 8.1724277347338370e-01
      -8.9317222544180872e+00 -9.9440786739508464e+00
      -4.5020576120185252e-01 -4.3661821228954718e+00
      1.2826851391097631e+00 4.1242399322249641e+00
      8.4426493887516385e-01 4.6819024263807458e+00
      6.4741230765826563e+00 3.8855631840053935e+00
      7.4299692634748937e-01 -1.8203191737297067e-01
      -2.5715182732633518e-01 7.4071696879652160e-01
      1.2257696202185802e+01 -4.8149529347734629e-02
      -2.0960490315343066e+00 -9.6417657028322257e-01
      1.7897320490810811e+00 8.6644909059838049e-01
      2.1326889759130401e+00 3.7934925371636026e+00
      -6.5384260145919821e+00 -5.3042467828778248e+00
      -4.4077669167414024e+00 2.7056623285102783e+00
      4.4682441047156379e-01 -4.1411577782954172e+00
      -3.5957788493898066e+00 -2.7926384909714206e+00
      2.6390953376731546e-01 -8.5224113609468137e+00
      -2.9034116213053041e-01 -1.5478377737016362e+00
      -1.2320144442257066e+00 2.8459856781491695e+00
      9.9885782100474465e+00 5.8133275032160041e+00
      -4.9873855360259025e+00 1.7960519095283678e+00
      -8.4591402185046185e+00 2.3096482216280321e+00
      -1.3609164855412612e+00 -3.1191415658125612e+00
      3.5021771374568744e+00 1.1878944510118781e+00
      -5.9374785543539064e+00 2.1500000187172201e+00
      3.3999402528374705e+00 5.9750938033463257e+00
      -4.7898498496652930e-01 -5.7544054613186573e+00
      -2.1573137545084582e+00 -2.3798205437374249e+00
      5.4133094566189612e+00 1.5305348157173784e-01
      1.0232752140187355e+01 -1.4673515488207918e+00
      4.8988920984699407e+00 -2.0403442610567444e+00
      -7.8442065603886526e+00 -3.8635333883788420e-01
      -1.3483497327579044e+00 -2.7700093693382586e+00
      -6.5451994673350766e+00 5.4316949544246818e+00
      2.3870005126833904e+00 -8.6224467056451504e-01
      8.1316638360623177e+00 -7.6426137011715252e+00
      -1.1225047341213044e+01 -7.4667696002214989e-01
      2.3864550927152497e-01 3.7575952943177424e+00
      3.8520091042056399e+00 -1.0733897416369624e+00
      7.0827381956704514e+00 6.8861430596425324e+00
      -5.9870468310121749e+00 1.3982875986217886e+00
      4.2034955328636645e+00 -1.4994133573790787e+00
      -7.8762467934470060e+00 -3.8654589017507481e+00
      6.0796194523016762e+00 -8.8926678852821051e-01
      -1.8885584168045755e+00 1.0880670265982690e+00
      4.0204948820368118e+00 7.5414349309232529e+00
      2.7180313363996839e-01 -2.4089887709378819e+00
      -8.2676864469501066e+00 8.1499073115437266e+00
      -6.7342053327201059e+00 3.0052165982910273e-01
      3.3989546484756397e+00 5.8577202174583132e+00
      5.6144319055293641e+00 -2.2907834482779101e+00
      -9.2906319932031032e+00 -1.2227013597157557e+01
      3.7620577345889141e+00 -8.3896715977564906e-01
      8.5061058677166841e+00 2.2175652058040995e+00
      3.9604734640359314e+00 1.4180774417249455e+00
      4.0374501304905852e+00 -3.6005788821032620e+00
      -5.7139416024146197e+00 7.6693643856596267e+00
      -1.3617986257504272e-01 -3.2140022157794310e+00
      3.5810529489465930e+00 -2.4420905993817477e+00
      1.8507890920953523e+00 4.6087863226031160e+00
      3.9338900285436464e+00 -2.4641340892910342e+00
      -6.7240271887847425e-01 -3.4196031828371383e+00
      -4.2654511242270461e+00 -9.8598205147887641e-01
      5.3806421534490525e+00 4.8276886785822830e+00
      1.4576852724665668e+00 -1.4325440130356262e+00
      -1.8893864586103692e-01 3.2801306120042888e+00
      -3.3126314314254979e-01 -6.4944128042556271e-01
      -4.2697145534379262e+00 2.6268873342546830e+00
      -1.5530017003851164e+00 -2.6545411039000695e+00
      8.8360516960014941e+00 2.5521146551181197e+00
      -4.3928889765829435e+00 4.6086147802315552e-01
      -3.7453702441043584e+00 -2.7065058601232894e+00
      -1.7229681524754139e+00 -5.9239627809963746e+00
      -2.2594737462697285e+00 -1.2152970850048717e+00
      -3.1433434979086790e+00 5.7218551718008506e+00
      5.5115567684170275e+00 1.5373734119412344e-01
      -4.3373026236257903e+00 8.4710664667624236e-01
      4.9249527019892619e-01 -3.0666712598759898e-02
      -2.6881952770627343e-01 -5.3516499181005184e-01
      7.2393729313366961e-01 4.9304680210706708e+00
      3.7879713526611338e+00 4.5298941661829417e+00
      1.3839970776843424e+00 7.9263597212059844e-01
      1.8042783273269133e-01 -6.3891706585900954e-01
      -2.6866320989393491e+00 -2.9730283077483364e+00
      6.7049758736528228e-02 -1.6680354609709028e-01
      3.7407435686742816e+00 -7.7226631661860390e-01
      -6.1827107264571890e-01 -2.0994332153197153e+00
      -2.3298211735847114e+00 1.7972409751475552e-01
      -3.1281972034509367e+00 2.6508736490381146e+00
      -2.5074158009704292e-02 -2.1530261901033292e+00
      -6.6632788131398142e+00 5.0957863418601859e+00
      1.2951020775050235e+00 -6.9054965347330977e-01
      3.6033683966186381e+00 -3.2591227307074728e+00
      1.1046012365243234e+00 -7.6519778553801721e-01
      1.7262778816638918e-01 6.6087202585852101e-01
      -3.3483704671196275e+00 -4.6359316499242933e+00
      3.9606042823324150e-01 2.8664700930312130e+00
      -1.0312618116145642e+00 3.2098497427979367e+00
      6.0151863459917791e+00 -5.0485567500121373e+00
      3.2980568192347670e+00 -2.5727885356771143e+00
      5.4719665311765278e+00 5.5619519991154656e+00
      1.2571950901093769e+00 6.3800509196153221e-01
      1.7273703854484870e-01 -3.5374642892648565e+00
      2.1187116474497190e+00 -1.4139938647233363e+00
      -2.1486752912945790e+00 -8.3724435587024360e+00
      -8.1405583470443144e-01 -5.5713624582152432e-01
      -5.5029996584941544e-02 1.2753215476014736e+00
      -4.4637064486022604e+00 6.8705955279893383e-01
      1.9099985226345151e+00 1.1983764631458662e+00
      8.0886897687104298e-01 -1.4912861254417955e+00
      -5.8747326488338700e+00 3.3627330318565067e+00
      -1.5023751399096423e+00 5.7758826099407967e+00
      1.1204366412712374e+00 2.4965906643967148e+00
      4.1801529051388178e+00 -7.8940596498635085e-01
      3.1179726395012497e+00 6.2745245525766002e-01
      -3.2185212761936915e-01 2.0300285611248539e+00
      -1.7143911389157123e+00 2.9753043079464443e+00
      -4.6948874803790293e-02 -4.3251749807985798e+00
      1.2359578046254553e+00 8.3210786847624230e-02
      3.7898562514390828e+00 3.0872503507290476e+00
      -3.1703506775565939e+00 -2.0629374793057478e+00
      3.4215518428714731e+00 -4.3213723398909547e+00
      1.8956437182071333e+00 -9.3334007280549827e+00
      -7.7334754935149419e-01 4.3970241449625336e+00
      3.4822988308672067e+00 -1.2592373301893836e+00
      -1.1539496998002290e+00 4.5581913631496915e+00
      6.6274713266291096e-01 -2.8848991222305727e+00
      3.1143800602235577e-01 -1.9505143024678376e-01
      -5.8459403984395752e-01 -5.0219287421962147e+00
      -1.3088766046689750e+00 2.7919675338058159e-01
